<?xml version="1.0"?>
<opencv_storage>
<cascade>
  <stageType>BOOST</stageType>
  <featureType>HAAR</featureType>
  <height>24</height>
  <width>24</width>
  <stageParams>
    <boostType>GAB</boostType>
    <minHitRate>9.9500000476837158e-01</minHitRate>
    <maxFalseAlarm>5.0000000000000000e-01</maxFalseAlarm>
    <weightTrimRate>9.4999999999999996e-01</weightTrimRate>
    <maxDepth>1</maxDepth>
    <maxWeakCount>100</maxWeakCount></stageParams>
  <featureParams>
    <maxCatCount>0</maxCatCount>
    <featSize>1</featSize>
    <mode>BASIC</mode></featureParams>
  <stageNum>35</stageNum>
  <stages>
    <!-- stage 0 -->
    <_>
      <maxWeakCount>5</maxWeakCount>
      <stageThreshold>-4.5511072874069214e-01</stageThreshold>
      <weakClassifiers>
        <_>
          <internalNodes>
            0 -1 224 -5.6397688388824463e-01</internalNodes>
          <leafValues>
            -1. 2.5960060954093933e-01</leafValues></_>
        <_>
          <internalNodes>
            0 -1 632 1.2729005888104439e-02</internalNodes>
          <leafValues>
            -3.7364020943641663e-01 6.9553583860397339e-01</leafValues></_>
        <_>
          <internalNodes>
            0 -1 33 -2.8778707981109619e-01</internalNodes>
          <leafValues>
            3.3539548516273499e-01 -7.2758758068084717e-01</leafValues></_>
        <_>
          <internalNodes>
            0 -1 132 2.9313458129763603e-02</internalNodes>
          <leafValues>
            -3.4244051575660706e-01 6.5260326862335205e-01</leafValues></_>
        <_>
          <internalNodes>
            0 -1 34 -2.2978067398071289e-02</internalNodes>
          <leafValues>
            8.0090278387069702e-01 -2.6608690619468689e-01</leafValues></_></weakClassifiers></_>
    <!-- stage 1 -->
    <_>
      <maxWeakCount>13</maxWeakCount>
      <stageThreshold>-1.0162844657897949e+00</stageThreshold>
      <weakClassifiers>
        <_>
          <internalNodes>
            0 -1 66 1.1390373110771179e-02</internalNodes>
          <leafValues>
            -2.3519457876682281e-01 5.3974896669387817e-01</leafValues></_>
        <_>
          <internalNodes>
            0 -1 587 2.2477691993117332e-02</internalNodes>
          <leafValues>
            -1.8885159492492676e-01 5.9287530183792114e-01</leafValues></_>
        <_>
          <internalNodes>
            0 -1 138 6.3224941492080688e-02</internalNodes>
          <leafValues>
            -2.1702741086483002e-01 6.6773647069931030e-01</leafValues></_>
        <_>
          <internalNodes>
            0 -1 22 -2.9261571168899536e-01</internalNodes>
          <leafValues>
            1.9003985822200775e-01 -6.3199704885482788e-01</leafValues></_>
        <_>
          <internalNodes>
            0 -1 184 -1.7051818966865540e-01</internalNodes>
          <leafValues>
            -8.0240935087203979e-01 1.9561667740345001e-01</leafValues></_>
        <_>
          <internalNodes>
            0 -1 575 2.1024534478783607e-02</internalNodes>
          <leafValues>
            -1.8888734281063080e-01 8.8742941617965698e-01</leafValues></_>
        <_>
          <internalNodes>
            0 -1 14 2.0191071555018425e-02</internalNodes>
          <leafValues>
            -1.3163098692893982e-01 6.1730337142944336e-01</leafValues></_>
        <_>
          <internalNodes>
            0 -1 53 -5.2648235112428665e-02</internalNodes>
          <leafValues>
            7.4691742658615112e-01 -1.4674624800682068e-01</leafValues></_>
        <_>
          <internalNodes>
            0 -1 657 6.7047919146716595e-03</internalNodes>
          <leafValues>
            -1.6855713725090027e-01 5.5417275428771973e-01</leafValues></_>
        <_>
          <internalNodes>
            0 -1 521 -1.2904100120067596e-01</internalNodes>
          <leafValues>
            2.5817787647247314e-01 -4.3560990691184998e-01</leafValues></_>
        <_>
          <internalNodes>
            0 -1 520 -1.6623518895357847e-03</internalNodes>
          <leafValues>
            2.8668332099914551e-01 -3.5195854306221008e-01</leafValues></_>
        <_>
          <internalNodes>
            0 -1 270 2.3663183674216270e-04</internalNodes>
          <leafValues>
            2.9700714349746704e-01 -3.9486840367317200e-01</leafValues></_>
        <_>
          <internalNodes>
            0 -1 457 -1.5926838386803865e-03</internalNodes>
          <leafValues>
            4.2986282706260681e-01 -2.8117883205413818e-01</leafValues></_></weakClassifiers></_>
    <!-- stage 2 -->
    <_>
      <maxWeakCount>17</maxWeakCount>
      <stageThreshold>-9.9085104465484619e-01</stageThreshold>
      <weakClassifiers>
        <_>
          <internalNodes>
            0 -1 505 -5.8949932456016541e-02</internalNodes>
          <leafValues>
            6.2500000000000000e-01 -1.6417910158634186e-01</leafValues></_>
        <_>
          <internalNodes>
            0 -1 27 -7.7487215399742126e-02</internalNodes>
          <leafValues>
            3.2341811060905457e-01 -3.0042448639869690e-01</leafValues></_>
        <_>
          <internalNodes>
            0 -1 118 -4.7785565257072449e-02</internalNodes>
          <leafValues>
            5.9625095129013062e-01 -1.7665420472621918e-01</leafValues></_>
        <_>
          <internalNodes>
            0 -1 514 1.2059560045599937e-02</internalNodes>
          <leafValues>
            -1.9354161620140076e-01 4.0248647332191467e-01</leafValues></_>
        <_>
          <internalNodes>
            0 -1 21 1.1561249196529388e-01</internalNodes>
          <leafValues>
            -1.1229142546653748e-01 6.2613373994827271e-01</leafValues></_>
        <_>
          <internalNodes>
            0 -1 113 -3.1574379652738571e-02</internalNodes>
          <leafValues>
            5.1241517066955566e-01 -1.7999303340911865e-01</leafValues></_>
        <_>
          <internalNodes>
            0 -1 105 -5.0861269235610962e-01</internalNodes>
          <leafValues>
            2.6271459460258484e-01 -3.1112238764762878e-01</leafValues></_>
        <_>
          <internalNodes>
            0 -1 52 -5.9917252510786057e-03</internalNodes>
          <leafValues>
            4.7592529654502869e-01 -1.5970158576965332e-01</leafValues></_>
        <_>
          <internalNodes>
            0 -1 503 4.5919522643089294e-02</internalNodes>
          <leafValues>
            -1.5435771644115448e-01 5.4344272613525391e-01</leafValues></_>
        <_>
          <internalNodes>
            0 -1 385 2.8611244633793831e-03</internalNodes>
          <leafValues>
            1.2790864706039429e-01 -6.6917359828948975e-01</leafValues></_>
        <_>
          <internalNodes>
            0 -1 2 -2.2914954461157322e-03</internalNodes>
          <leafValues>
            -5.7571107149124146e-01 1.5205678343772888e-01</leafValues></_>
        <_>
          <internalNodes>
            0 -1 413 -4.5196590945124626e-03</internalNodes>
          <leafValues>
            3.1055566668510437e-01 -2.4849030375480652e-01</leafValues></_>
        <_>
          <internalNodes>
            0 -1 347 3.2100509852170944e-02</internalNodes>
          <leafValues>
            -1.4885447919368744e-01 6.0426855087280273e-01</leafValues></_>
        <_>
          <internalNodes>
            0 -1 349 -2.5325827300548553e-03</internalNodes>
          <leafValues>
            -6.9644993543624878e-01 1.3588900864124298e-01</leafValues></_>
        <_>
          <internalNodes>
            0 -1 663 4.7616092488169670e-03</internalNodes>
          <leafValues>
            -1.3897408545017242e-01 6.1391854286193848e-01</leafValues></_>
        <_>
          <internalNodes>
            0 -1 542 -5.1553107798099518e-02</internalNodes>
          <leafValues>
            8.3230412006378174e-01 -9.8280772566795349e-02</leafValues></_>
        <_>
          <internalNodes>
            0 -1 262 6.2001177866477519e-05</internalNodes>
          <leafValues>
            -2.7930974960327148e-01 2.9871019721031189e-01</leafValues></_></weakClassifiers></_>
    <!-- stage 3 -->
    <_>
      <maxWeakCount>16</maxWeakCount>
      <stageThreshold>-7.2664159536361694e-01</stageThreshold>
      <weakClassifiers>
        <_>
          <internalNodes>
            0 -1 71 -2.8019111603498459e-02</internalNodes>
          <leafValues>
            -1. 7.0496082305908203e-02</leafValues></_>
        <_>
          <internalNodes>
            0 -1 656 8.4178987890481949e-03</internalNodes>
          <leafValues>
            -1.6089217364788055e-01 4.8317918181419373e-01</leafValues></_>
        <_>
          <internalNodes>
            0 -1 140 1.4361214637756348e-01</internalNodes>
          <leafValues>
            -1.4002622663974762e-01 5.7691037654876709e-01</leafValues></_>
        <_>
          <internalNodes>
            0 -1 47 -1.0851508006453514e-02</internalNodes>
          <leafValues>
            7.3021018505096436e-01 -8.8488511741161346e-02</leafValues></_>
        <_>
          <internalNodes>
            0 -1 204 2.9837569221854210e-02</internalNodes>
          <leafValues>
            -1.7134357988834381e-01 5.3829407691955566e-01</leafValues></_>
        <_>
          <internalNodes>
            0 -1 345 4.9639856442809105e-03</internalNodes>
          <leafValues>
            1.0641518980264664e-01 -6.7797130346298218e-01</leafValues></_>
        <_>
          <internalNodes>
            0 -1 627 6.7250942811369896e-03</internalNodes>
          <leafValues>
            -9.6351005136966705e-02 5.4289925098419189e-01</leafValues></_>
        <_>
          <internalNodes>
            0 -1 152 1.5215279534459114e-02</internalNodes>
          <leafValues>
            8.1230871379375458e-02 -7.1468377113342285e-01</leafValues></_>
        <_>
          <internalNodes>
            0 -1 182 -1.0635614395141602e-01</internalNodes>
          <leafValues>
            6.0396587848663330e-01 -1.1859586834907532e-01</leafValues></_>
        <_>
          <internalNodes>
            0 -1 276 -2.4859189987182617e-02</internalNodes>
          <leafValues>
            3.1897151470184326e-01 -2.2089268267154694e-01</leafValues></_>
        <_>
          <internalNodes>
            0 -1 519 -2.8323102742433548e-02</internalNodes>
          <leafValues>
            1.9644477963447571e-01 -3.5564187169075012e-01</leafValues></_>
        <_>
          <internalNodes>
            0 -1 658 -4.7799736261367798e-02</internalNodes>
          <leafValues>
            -9.7239530086517334e-01 6.9432511925697327e-02</leafValues></_>
        <_>
          <internalNodes>
            0 -1 125 -1.0988226160407066e-02</internalNodes>
          <leafValues>
            3.4110835194587708e-01 -1.9013644754886627e-01</leafValues></_>
        <_>
          <internalNodes>
            0 -1 423 1.6348650678992271e-03</internalNodes>
          <leafValues>
            1.1389675736427307e-01 -6.0609853267669678e-01</leafValues></_>
        <_>
          <internalNodes>
            0 -1 414 -1.9372221082448959e-02</internalNodes>
          <leafValues>
            -6.2485617399215698e-01 7.7813550829887390e-02</leafValues></_>
        <_>
          <internalNodes>
            0 -1 46 4.4302684254944324e-03</internalNodes>
          <leafValues>
            -9.2839345335960388e-02 7.1409446001052856e-01</leafValues></_></weakClassifiers></_>
    <!-- stage 4 -->
    <_>
      <maxWeakCount>14</maxWeakCount>
      <stageThreshold>-8.7716579437255859e-01</stageThreshold>
      <weakClassifiers>
        <_>
          <internalNodes>
            0 -1 444 -3.0662171542644501e-02</internalNodes>
          <leafValues>
            5.0450450181961060e-01 -2.0065788924694061e-01</leafValues></_>
        <_>
          <internalNodes>
            0 -1 126 -3.3454503864049911e-03</internalNodes>
          <leafValues>
            4.3800759315490723e-01 -2.1107000112533569e-01</leafValues></_>
        <_>
          <internalNodes>
            0 -1 145 -6.9752424955368042e-01</internalNodes>
          <leafValues>
            -7.2464764118194580e-01 1.0482256114482880e-01</leafValues></_>
        <_>
          <internalNodes>
            0 -1 540 2.9525915160775185e-02</internalNodes>
          <leafValues>
            -8.3292238414287567e-02 5.5997544527053833e-01</leafValues></_>
        <_>
          <internalNodes>
            0 -1 210 3.7605965044349432e-03</internalNodes>
          <leafValues>
            -1.5457561612129211e-01 5.7572150230407715e-01</leafValues></_>
        <_>
          <internalNodes>
            0 -1 445 -2.3951963521540165e-03</internalNodes>
          <leafValues>
            2.4791531264781952e-01 -3.2243075966835022e-01</leafValues></_>
        <_>
          <internalNodes>
            0 -1 148 -2.2012840956449509e-02</internalNodes>
          <leafValues>
            -6.8930041790008545e-01 7.6790280640125275e-02</leafValues></_>
        <_>
          <internalNodes>
            0 -1 57 -5.3056171163916588e-03</internalNodes>
          <leafValues>
            3.9769989252090454e-01 -2.0953305065631866e-01</leafValues></_>
        <_>
          <internalNodes>
            0 -1 252 3.3871166408061981e-02</internalNodes>
          <leafValues>
            1.1455573886632919e-01 -7.1126377582550049e-01</leafValues></_>
        <_>
          <internalNodes>
            0 -1 611 2.0229653455317020e-03</internalNodes>
          <leafValues>
            -1.8364550173282623e-01 4.5124012231826782e-01</leafValues></_>
        <_>
          <internalNodes>
            0 -1 213 -5.9712645597755909e-03</internalNodes>
          <leafValues>
            7.9045337438583374e-01 -9.8287463188171387e-02</leafValues></_>
        <_>
          <internalNodes>
            0 -1 524 5.8825416490435600e-03</internalNodes>
          <leafValues>
            1.2307318300008774e-01 -7.5771445035934448e-01</leafValues></_>
        <_>
          <internalNodes>
            0 -1 40 2.9808597901137546e-05</internalNodes>
          <leafValues>
            -2.6549139618873596e-01 2.7034589648246765e-01</leafValues></_>
        <_>
          <internalNodes>
            0 -1 333 -2.0208206027746201e-02</internalNodes>
          <leafValues>
            3.5308724641799927e-01 -2.1650122106075287e-01</leafValues></_></weakClassifiers></_>
    <!-- stage 5 -->
    <_>
      <maxWeakCount>19</maxWeakCount>
      <stageThreshold>-1.0060527324676514e+00</stageThreshold>
      <weakClassifiers>
        <_>
          <internalNodes>
            0 -1 31 -5.9790641069412231e-01</internalNodes>
          <leafValues>
            -5.1367783546447754e-01 3.1736525893211365e-01</leafValues></_>
        <_>
          <internalNodes>
            0 -1 374 5.1612682640552521e-02</internalNodes>
          <leafValues>
            1.4281494915485382e-01 -5.2174699306488037e-01</leafValues></_>
        <_>
          <internalNodes>
            0 -1 94 -5.8615813031792641e-03</internalNodes>
          <leafValues>
            4.2142999172210693e-01 -1.7766785621643066e-01</leafValues></_>
        <_>
          <internalNodes>
            0 -1 481 -4.6958252787590027e-03</internalNodes>
          <leafValues>
            3.8797694444656372e-01 -2.0255276560783386e-01</leafValues></_>
        <_>
          <internalNodes>
            0 -1 618 9.5571633428335190e-03</internalNodes>
          <leafValues>
            -1.9450084865093231e-01 3.7126547098159790e-01</leafValues></_>
        <_>
          <internalNodes>
            0 -1 96 4.4384757056832314e-03</internalNodes>
          <leafValues>
            -2.1576702594757080e-01 3.4263414144515991e-01</leafValues></_>
        <_>
          <internalNodes>
            0 -1 259 -7.4158221483230591e-02</internalNodes>
          <leafValues>
            -2.2681239247322083e-01 3.3422306180000305e-01</leafValues></_>
        <_>
          <internalNodes>
            0 -1 382 -2.4140443652868271e-02</internalNodes>
          <leafValues>
            3.1997251510620117e-01 -2.1303629875183105e-01</leafValues></_>
        <_>
          <internalNodes>
            0 -1 65 -7.3097376152873039e-03</internalNodes>
          <leafValues>
            -6.1306989192962646e-01 7.2592318058013916e-02</leafValues></_>
        <_>
          <internalNodes>
            0 -1 248 8.0347771290689707e-04</internalNodes>
          <leafValues>
            -1.2753500044345856e-01 5.1376193761825562e-01</leafValues></_>
        <_>
          <internalNodes>
            0 -1 69 -4.4999733567237854e-02</internalNodes>
          <leafValues>
            -6.0302358865737915e-01 1.2559051811695099e-01</leafValues></_>
        <_>
          <internalNodes>
            0 -1 271 4.7210082411766052e-03</internalNodes>
          <leafValues>
            -2.0106074213981628e-01 2.9549649357795715e-01</leafValues></_>
        <_>
          <internalNodes>
            0 -1 492 -2.6313744019716978e-03</internalNodes>
          <leafValues>
            2.5691539049148560e-01 -2.4920612573623657e-01</leafValues></_>
        <_>
          <internalNodes>
            0 -1 559 9.4636091962456703e-03</internalNodes>
          <leafValues>
            -1.9194096326828003e-01 3.1870025396347046e-01</leafValues></_>
        <_>
          <internalNodes>
            0 -1 599 -4.7059571370482445e-03</internalNodes>
          <leafValues>
            4.2385593056678772e-01 -1.3582803308963776e-01</leafValues></_>
        <_>
          <internalNodes>
            0 -1 336 -1.0688118636608124e-03</internalNodes>
          <leafValues>
            2.2745847702026367e-01 -2.8057217597961426e-01</leafValues></_>
        <_>
          <internalNodes>
            0 -1 144 -3.4430250525474548e-02</internalNodes>
          <leafValues>
            5.5872356891632080e-01 -1.1474734544754028e-01</leafValues></_>
        <_>
          <internalNodes>
            0 -1 173 9.5228394493460655e-03</internalNodes>
          <leafValues>
            -1.4674401283264160e-01 4.2601507902145386e-01</leafValues></_>
        <_>
          <internalNodes>
            0 -1 51 6.9406684488058090e-03</internalNodes>
          <leafValues>
            7.8000806272029877e-02 -9.0212595462799072e-01</leafValues></_></weakClassifiers></_>
    <!-- stage 6 -->
    <_>
      <maxWeakCount>21</maxWeakCount>
      <stageThreshold>-8.7593924999237061e-01</stageThreshold>
      <weakClassifiers>
        <_>
          <internalNodes>
            0 -1 10 1.1701550334692001e-02</internalNodes>
          <leafValues>
            -1.3428571820259094e-01 6.4615386724472046e-01</leafValues></_>
        <_>
          <internalNodes>
            0 -1 118 -4.3726570904254913e-02</internalNodes>
          <leafValues>
            4.6329557895660400e-01 -1.3765713572502136e-01</leafValues></_>
        <_>
          <internalNodes>
            0 -1 187 -2.6462662220001221e-01</internalNodes>
          <leafValues>
            -4.0001222491264343e-01 2.1243554353713989e-01</leafValues></_>
        <_>
          <internalNodes>
            0 -1 328 -1.2523951008915901e-02</internalNodes>
          <leafValues>
            3.3841812610626221e-01 -1.8572540581226349e-01</leafValues></_>
        <_>
          <internalNodes>
            0 -1 80 1.7685724422335625e-02</internalNodes>
          <leafValues>
            -1.6741438210010529e-01 4.7663673758506775e-01</leafValues></_>
        <_>
          <internalNodes>
            0 -1 343 7.9814338823780417e-04</internalNodes>
          <leafValues>
            1.9090051949024200e-01 -5.3596115112304688e-01</leafValues></_>
        <_>
          <internalNodes>
            0 -1 489 3.8217581808567047e-02</internalNodes>
          <leafValues>
            -2.0357345044612885e-01 4.2841723561286926e-01</leafValues></_>
        <_>
          <internalNodes>
            0 -1 394 -6.8413838744163513e-03</internalNodes>
          <leafValues>
            -5.0481367111206055e-01 1.5666344761848450e-01</leafValues></_>
        <_>
          <internalNodes>
            0 -1 297 1.2204416096210480e-02</internalNodes>
          <leafValues>
            -1.5960215032100677e-01 5.2156710624694824e-01</leafValues></_>
        <_>
          <internalNodes>
            0 -1 352 1.5401007607579231e-02</internalNodes>
          <leafValues>
            -9.4147592782974243e-02 5.0398343801498413e-01</leafValues></_>
        <_>
          <internalNodes>
            0 -1 87 -2.0155601203441620e-02</internalNodes>
          <leafValues>
            3.2700094580650330e-01 -2.0236070454120636e-01</leafValues></_>
        <_>
          <internalNodes>
            0 -1 362 4.2021013796329498e-02</internalNodes>
          <leafValues>
            -9.0795204043388367e-02 5.9345823526382446e-01</leafValues></_>
        <_>
          <internalNodes>
            0 -1 422 -1.1307456530630589e-02</internalNodes>
          <leafValues>
            5.5719041824340820e-01 -1.1085607856512070e-01</leafValues></_>
        <_>
          <internalNodes>
            0 -1 133 -2.4733345955610275e-02</internalNodes>
          <leafValues>
            5.5993044376373291e-01 -1.1824954301118851e-01</leafValues></_>
        <_>
          <internalNodes>
            0 -1 151 -2.6171062141656876e-02</internalNodes>
          <leafValues>
            4.0443685650825500e-01 -1.7046394944190979e-01</leafValues></_>
        <_>
          <internalNodes>
            0 -1 171 -5.4888568818569183e-02</internalNodes>
          <leafValues>
            2.1450378000736237e-01 -3.0199256539344788e-01</leafValues></_>
        <_>
          <internalNodes>
            0 -1 238 -1.5587339177727699e-02</internalNodes>
          <leafValues>
            4.5597454905509949e-01 -1.3447512686252594e-01</leafValues></_>
        <_>
          <internalNodes>
            0 -1 305 -1.2836920097470284e-02</internalNodes>
          <leafValues>
            -7.1438688039779663e-01 1.0893582552671432e-01</leafValues></_>
        <_>
          <internalNodes>
            0 -1 103 1.3864237815141678e-02</internalNodes>
          <leafValues>
            -1.0767033696174622e-01 7.6200228929519653e-01</leafValues></_>
        <_>
          <internalNodes>
            0 -1 568 -1.9990170374512672e-02</internalNodes>
          <leafValues>
            7.5895941257476807e-01 -5.4830178618431091e-02</leafValues></_>
        <_>
          <internalNodes>
            0 -1 232 -6.6803187131881714e-02</internalNodes>
          <leafValues>
            -1.9463497400283813e-01 3.2804948091506958e-01</leafValues></_></weakClassifiers></_>
    <!-- stage 7 -->
    <_>
      <maxWeakCount>19</maxWeakCount>
      <stageThreshold>-8.4899276494979858e-01</stageThreshold>
      <weakClassifiers>
        <_>
          <internalNodes>
            0 -1 23 -1.6528895497322083e-01</internalNodes>
          <leafValues>
            3.6639118194580078e-01 -3.0620986223220825e-01</leafValues></_>
        <_>
          <internalNodes>
            0 -1 342 -5.7486504316329956e-02</internalNodes>
          <leafValues>
            4.3176427483558655e-01 -1.6822400689125061e-01</leafValues></_>
        <_>
          <internalNodes>
            0 -1 424 -1.1921104043722153e-02</internalNodes>
          <leafValues>
            -7.3183649778366089e-01 9.6830978989601135e-02</leafValues></_>
        <_>
          <internalNodes>
            0 -1 247 1.3047754764556885e-02</internalNodes>
          <leafValues>
            -1.0214006155729294e-01 5.7403033971786499e-01</leafValues></_>
        <_>
          <internalNodes>
            0 -1 245 -6.8347699940204620e-02</internalNodes>
          <leafValues>
            3.9036166667938232e-01 -1.8594007194042206e-01</leafValues></_>
        <_>
          <internalNodes>
            0 -1 334 2.2542441263794899e-02</internalNodes>
          <leafValues>
            -1.3786856830120087e-01 5.2874755859375000e-01</leafValues></_>
        <_>
          <internalNodes>
            0 -1 373 8.1852991133928299e-03</internalNodes>
          <leafValues>
            1.0532698035240173e-01 -7.1542650461196899e-01</leafValues></_>
        <_>
          <internalNodes>
            0 -1 63 -1.2632509460672736e-03</internalNodes>
          <leafValues>
            -4.2743965983390808e-01 1.3252370059490204e-01</leafValues></_>
        <_>
          <internalNodes>
            0 -1 268 -4.6567758545279503e-03</internalNodes>
          <leafValues>
            -5.9359753131866455e-01 9.0199500322341919e-02</leafValues></_>
        <_>
          <internalNodes>
            0 -1 275 5.6777153164148331e-02</internalNodes>
          <leafValues>
            7.8953951597213745e-02 -6.5529394149780273e-01</leafValues></_>
        <_>
          <internalNodes>
            0 -1 337 -7.0178797468543053e-03</internalNodes>
          <leafValues>
            3.7756773829460144e-01 -1.6528992354869843e-01</leafValues></_>
        <_>
          <internalNodes>
            0 -1 294 -3.4810043871402740e-03</internalNodes>
          <leafValues>
            -8.3057099580764771e-01 6.5381623804569244e-02</leafValues></_>
        <_>
          <internalNodes>
            0 -1 141 -1.4338068664073944e-02</internalNodes>
          <leafValues>
            3.4640124440193176e-01 -1.6602440178394318e-01</leafValues></_>
        <_>
          <internalNodes>
            0 -1 592 -2.3786518722772598e-03</internalNodes>
          <leafValues>
            -4.9726554751396179e-01 1.2216705083847046e-01</leafValues></_>
        <_>
          <internalNodes>
            0 -1 650 -7.6511816587299109e-04</internalNodes>
          <leafValues>
            -4.0628308057785034e-01 1.3578674197196960e-01</leafValues></_>
        <_>
          <internalNodes>
            0 -1 502 -3.8254477083683014e-02</internalNodes>
          <leafValues>
            -8.0877059698104858e-01 5.6421495974063873e-02</leafValues></_>
        <_>
          <internalNodes>
            0 -1 459 3.7809112109243870e-04</internalNodes>
          <leafValues>
            -2.1632747352123260e-01 2.6565766334533691e-01</leafValues></_>
        <_>
          <internalNodes>
            0 -1 408 6.2778061255812645e-03</internalNodes>
          <leafValues>
            6.7278295755386353e-02 -7.2987717390060425e-01</leafValues></_>
        <_>
          <internalNodes>
            0 -1 677 4.7499425709247589e-03</internalNodes>
          <leafValues>
            4.9420788884162903e-02 -8.8560885190963745e-01</leafValues></_></weakClassifiers></_>
    <!-- stage 8 -->
    <_>
      <maxWeakCount>14</maxWeakCount>
      <stageThreshold>-7.6964843273162842e-01</stageThreshold>
      <weakClassifiers>
        <_>
          <internalNodes>
            0 -1 527 -1.4818366616964340e-03</internalNodes>
          <leafValues>
            -8.1443297863006592e-01 9.4133697450160980e-02</leafValues></_>
        <_>
          <internalNodes>
            0 -1 313 -2.3440611548721790e-03</internalNodes>
          <leafValues>
            -9.6740430593490601e-01 1.0738689452409744e-01</leafValues></_>
        <_>
          <internalNodes>
            0 -1 34 -1.8316738307476044e-02</internalNodes>
          <leafValues>
            3.6086460947990417e-01 -2.6233223080635071e-01</leafValues></_>
        <_>
          <internalNodes>
            0 -1 358 7.2293328121304512e-03</internalNodes>
          <leafValues>
            -1.6227832436561584e-01 4.6928116679191589e-01</leafValues></_>
        <_>
          <internalNodes>
            0 -1 81 -9.0437993407249451e-02</internalNodes>
          <leafValues>
            2.8743681311607361e-01 -3.1673917174339294e-01</leafValues></_>
        <_>
          <internalNodes>
            0 -1 290 -9.5638729631900787e-02</internalNodes>
          <leafValues>
            5.8652430772781372e-01 -1.6149839758872986e-01</leafValues></_>
        <_>
          <internalNodes>
            0 -1 548 -2.4539763107895851e-03</internalNodes>
          <leafValues>
            -5.0548845529556274e-01 1.3264979422092438e-01</leafValues></_>
        <_>
          <internalNodes>
            0 -1 508 2.7535569388419390e-03</internalNodes>
          <leafValues>
            8.1813588738441467e-02 -8.5279792547225952e-01</leafValues></_>
        <_>
          <internalNodes>
            0 -1 330 5.2011553198099136e-03</internalNodes>
          <leafValues>
            -1.5898698568344116e-01 4.4305011630058289e-01</leafValues></_>
        <_>
          <internalNodes>
            0 -1 68 2.4544548243284225e-02</internalNodes>
          <leafValues>
            -1.7212283611297607e-01 4.4254806637763977e-01</leafValues></_>
        <_>
          <internalNodes>
            0 -1 315 -1.2147598899900913e-03</internalNodes>
          <leafValues>
            1.1370124667882919e-01 -8.7821507453918457e-01</leafValues></_>
        <_>
          <internalNodes>
            0 -1 239 1.6376793384552002e-02</internalNodes>
          <leafValues>
            -1.7146348953247070e-01 4.7953313589096069e-01</leafValues></_>
        <_>
          <internalNodes>
            0 -1 450 -2.2034612484276295e-03</internalNodes>
          <leafValues>
            -6.1117184162139893e-01 9.9205546081066132e-02</leafValues></_>
        <_>
          <internalNodes>
            0 -1 525 3.3687341492623091e-03</internalNodes>
          <leafValues>
            7.2841800749301910e-02 -8.4375828504562378e-01</leafValues></_></weakClassifiers></_>
    <!-- stage 9 -->
    <_>
      <maxWeakCount>9</maxWeakCount>
      <stageThreshold>-7.0119255781173706e-01</stageThreshold>
      <weakClassifiers>
        <_>
          <internalNodes>
            0 -1 82 -1.5044485032558441e-01</internalNodes>
          <leafValues>
            6.1672472953796387e-01 -3.4438306093215942e-01</leafValues></_>
        <_>
          <internalNodes>
            0 -1 263 -1.4293252024799585e-03</internalNodes>
          <leafValues>
            1.8192175030708313e-01 -8.7794989347457886e-01</leafValues></_>
        <_>
          <internalNodes>
            0 -1 487 1.1979227419942617e-03</internalNodes>
          <leafValues>
            1.0975202172994614e-01 -8.0189055204391479e-01</leafValues></_>
        <_>
          <internalNodes>
            0 -1 454 -1.3770203106105328e-02</internalNodes>
          <leafValues>
            3.7380930781364441e-01 -2.7627983689308167e-01</leafValues></_>
        <_>
          <internalNodes>
            0 -1 230 -3.4467303194105625e-03</internalNodes>
          <leafValues>
            -8.4774202108383179e-01 1.1828453093767166e-01</leafValues></_>
        <_>
          <internalNodes>
            0 -1 361 -1.6605954617261887e-02</internalNodes>
          <leafValues>
            7.1708929538726807e-01 -1.7422951757907867e-01</leafValues></_>
        <_>
          <internalNodes>
            0 -1 11 2.7499545365571976e-02</internalNodes>
          <leafValues>
            -2.5090381503105164e-01 4.8103681206703186e-01</leafValues></_>
        <_>
          <internalNodes>
            0 -1 635 -2.3812558501958847e-03</internalNodes>
          <leafValues>
            -6.9348806142807007e-01 1.8559516966342926e-01</leafValues></_>
        <_>
          <internalNodes>
            0 -1 62 -3.3122844994068146e-02</internalNodes>
          <leafValues>
            7.3547583818435669e-01 -1.5218600630760193e-01</leafValues></_></weakClassifiers></_>
    <!-- stage 10 -->
    <_>
      <maxWeakCount>14</maxWeakCount>
      <stageThreshold>-7.6296573877334595e-01</stageThreshold>
      <weakClassifiers>
        <_>
          <internalNodes>
            0 -1 246 -9.6577435731887817e-02</internalNodes>
          <leafValues>
            6.8807339668273926e-01 -2.6143792271614075e-01</leafValues></_>
        <_>
          <internalNodes>
            0 -1 368 -6.2208868563175201e-02</internalNodes>
          <leafValues>
            2.6667404174804688e-01 -3.5071209073066711e-01</leafValues></_>
        <_>
          <internalNodes>
            0 -1 350 6.0959234833717346e-03</internalNodes>
          <leafValues>
            9.9612787365913391e-02 -7.3948222398757935e-01</leafValues></_>
        <_>
          <internalNodes>
            0 -1 9 -2.1134541928768158e-01</internalNodes>
          <leafValues>
            4.7042122483253479e-01 -1.5077070891857147e-01</leafValues></_>
        <_>
          <internalNodes>
            0 -1 203 1.1956707574427128e-02</internalNodes>
          <leafValues>
            -2.5389990210533142e-01 3.4594154357910156e-01</leafValues></_>
        <_>
          <internalNodes>
            0 -1 137 -1.5644781291484833e-02</internalNodes>
          <leafValues>
            5.2926415205001831e-01 -1.5066605806350708e-01</leafValues></_>
        <_>
          <internalNodes>
            0 -1 566 -2.5290988851338625e-03</internalNodes>
          <leafValues>
            1.0543922334909439e-01 -7.9015976190567017e-01</leafValues></_>
        <_>
          <internalNodes>
            0 -1 300 -1.5657594799995422e-01</internalNodes>
          <leafValues>
            4.4484841823577881e-01 -1.9436016678810120e-01</leafValues></_>
        <_>
          <internalNodes>
            0 -1 256 4.1159592568874359e-02</internalNodes>
          <leafValues>
            -1.2304684519767761e-01 5.6243407726287842e-01</leafValues></_>
        <_>
          <internalNodes>
            0 -1 460 -2.2563308477401733e-02</internalNodes>
          <leafValues>
            -2.8190222382545471e-01 3.1882518529891968e-01</leafValues></_>
        <_>
          <internalNodes>
            0 -1 289 -2.5162836536765099e-03</internalNodes>
          <leafValues>
            7.8830420970916748e-02 -8.7884300947189331e-01</leafValues></_>
        <_>
          <internalNodes>
            0 -1 346 3.3100228756666183e-03</internalNodes>
          <leafValues>
            1.2970779836177826e-01 -4.9961125850677490e-01</leafValues></_>
        <_>
          <internalNodes>
            0 -1 504 -9.1041717678308487e-03</internalNodes>
          <leafValues>
            3.2549870014190674e-01 -2.1451503038406372e-01</leafValues></_>
        <_>
          <internalNodes>
            0 -1 15 4.9026783555746078e-02</internalNodes>
          <leafValues>
            -1.9536750018596649e-01 3.7036749720573425e-01</leafValues></_></weakClassifiers></_>
    <!-- stage 11 -->
    <_>
      <maxWeakCount>17</maxWeakCount>
      <stageThreshold>-8.7960600852966309e-01</stageThreshold>
      <weakClassifiers>
        <_>
          <internalNodes>
            0 -1 16 -2.9678168892860413e-01</internalNodes>
          <leafValues>
            8.0000001192092896e-01 -2.0597015321254730e-01</leafValues></_>
        <_>
          <internalNodes>
            0 -1 294 1.4088533353060484e-03</internalNodes>
          <leafValues>
            1.6580539941787720e-01 -5.3250139951705933e-01</leafValues></_>
        <_>
          <internalNodes>
            0 -1 205 -6.0962729156017303e-02</internalNodes>
          <leafValues>
            6.6210198402404785e-01 -1.1042764037847519e-01</leafValues></_>
        <_>
          <internalNodes>
            0 -1 135 8.8759455829858780e-03</internalNodes>
          <leafValues>
            -1.8430706858634949e-01 3.7623682618141174e-01</leafValues></_>
        <_>
          <internalNodes>
            0 -1 518 -5.1474750041961670e-02</internalNodes>
          <leafValues>
            3.0987417697906494e-01 -1.9171796739101410e-01</leafValues></_>
        <_>
          <internalNodes>
            0 -1 86 2.8446272015571594e-01</internalNodes>
          <leafValues>
            -8.4581717848777771e-02 7.2519314289093018e-01</leafValues></_>
        <_>
          <internalNodes>
            0 -1 397 -3.3599194139242172e-03</internalNodes>
          <leafValues>
            5.5741244554519653e-01 -7.5592942535877228e-02</leafValues></_>
        <_>
          <internalNodes>
            0 -1 586 -8.1290416419506073e-03</internalNodes>
          <leafValues>
            -8.3393669128417969e-01 6.4205028116703033e-02</leafValues></_>
        <_>
          <internalNodes>
            0 -1 221 -6.9677298888564110e-03</internalNodes>
          <leafValues>
            6.2547668814659119e-02 -9.1875964403152466e-01</leafValues></_>
        <_>
          <internalNodes>
            0 -1 26 -2.8956394642591476e-02</internalNodes>
          <leafValues>
            1.9958499073982239e-01 -3.4737080335617065e-01</leafValues></_>
        <_>
          <internalNodes>
            0 -1 155 -1.0165335610508919e-02</internalNodes>
          <leafValues>
            -7.8323554992675781e-01 8.2035593688488007e-02</leafValues></_>
        <_>
          <internalNodes>
            0 -1 509 2.8719990514218807e-03</internalNodes>
          <leafValues>
            6.4136385917663574e-02 -8.3334261178970337e-01</leafValues></_>
        <_>
          <internalNodes>
            0 -1 317 -1.9161794334650040e-02</internalNodes>
          <leafValues>
            -6.8423163890838623e-01 8.2360528409481049e-02</leafValues></_>
        <_>
          <internalNodes>
            0 -1 95 7.6612820848822594e-03</internalNodes>
          <leafValues>
            -1.4212128520011902e-01 4.9840253591537476e-01</leafValues></_>
        <_>
          <internalNodes>
            0 -1 510 -1.3834451325237751e-02</internalNodes>
          <leafValues>
            -7.2738808393478394e-01 9.4321191310882568e-02</leafValues></_>
        <_>
          <internalNodes>
            0 -1 552 -3.0750841833651066e-03</internalNodes>
          <leafValues>
            -6.4392256736755371e-01 7.8410722315311432e-02</leafValues></_>
        <_>
          <internalNodes>
            0 -1 623 -7.9997777938842773e-03</internalNodes>
          <leafValues>
            8.8778175413608551e-02 -6.0580766201019287e-01</leafValues></_></weakClassifiers></_>
    <!-- stage 12 -->
    <_>
      <maxWeakCount>17</maxWeakCount>
      <stageThreshold>-8.0984658002853394e-01</stageThreshold>
      <weakClassifiers>
        <_>
          <internalNodes>
            0 -1 134 -5.0235461443662643e-02</internalNodes>
          <leafValues>
            3.8333332538604736e-01 -3.1489360332489014e-01</leafValues></_>
        <_>
          <internalNodes>
            0 -1 146 -1.1947350203990936e-01</internalNodes>
          <leafValues>
            3.3348932862281799e-01 -2.1839116513729095e-01</leafValues></_>
        <_>
          <internalNodes>
            0 -1 206 -1.0099858045578003e-03</internalNodes>
          <leafValues>
            7.4957740306854248e-01 -9.1802030801773071e-02</leafValues></_>
        <_>
          <internalNodes>
            0 -1 573 -8.7154086213558912e-04</internalNodes>
          <leafValues>
            5.4180347919464111e-01 -1.3114282488822937e-01</leafValues></_>
        <_>
          <internalNodes>
            0 -1 616 -5.1559368148446083e-03</internalNodes>
          <leafValues>
            -5.5378764867782593e-01 1.1576513946056366e-01</leafValues></_>
        <_>
          <internalNodes>
            0 -1 143 -1.2672913726419210e-03</internalNodes>
          <leafValues>
            7.7944040298461914e-01 -8.2799866795539856e-02</leafValues></_>
        <_>
          <internalNodes>
            0 -1 418 -3.2437781337648630e-03</internalNodes>
          <leafValues>
            8.8386699557304382e-02 -8.9754843711853027e-01</leafValues></_>
        <_>
          <internalNodes>
            0 -1 45 -3.3953372389078140e-02</internalNodes>
          <leafValues>
            -7.1978223323822021e-01 8.3112053573131561e-02</leafValues></_>
        <_>
          <internalNodes>
            0 -1 622 -8.4295705892145634e-04</internalNodes>
          <leafValues>
            5.7359784841537476e-01 -1.0830865800380707e-01</leafValues></_>
        <_>
          <internalNodes>
            0 -1 516 -9.2709604650735855e-03</internalNodes>
          <leafValues>
            4.2092522978782654e-01 -1.4985457062721252e-01</leafValues></_>
        <_>
          <internalNodes>
            0 -1 143 1.6809143126010895e-03</internalNodes>
          <leafValues>
            -8.0658279359340668e-02 9.0611445903778076e-01</leafValues></_>
        <_>
          <internalNodes>
            0 -1 607 -4.6775005757808685e-02</internalNodes>
          <leafValues>
            -4.9504882097244263e-01 1.4978866279125214e-01</leafValues></_>
        <_>
          <internalNodes>
            0 -1 478 -7.6483981683850288e-03</internalNodes>
          <leafValues>
            3.3337160944938660e-01 -1.8839901685714722e-01</leafValues></_>
        <_>
          <internalNodes>
            0 -1 550 2.7030040509998798e-03</internalNodes>
          <leafValues>
            1.1000519990921021e-01 -5.7292485237121582e-01</leafValues></_>
        <_>
          <internalNodes>
            0 -1 641 -1.3018932659178972e-03</internalNodes>
          <leafValues>
            7.4228870868682861e-01 -9.1703645884990692e-02</leafValues></_>
        <_>
          <internalNodes>
            0 -1 6 6.0455717146396637e-02</internalNodes>
          <leafValues>
            9.9388137459754944e-02 -8.3618199825286865e-01</leafValues></_>
        <_>
          <internalNodes>
            0 -1 180 -5.2599161863327026e-03</internalNodes>
          <leafValues>
            -6.7643374204635620e-01 8.6870916187763214e-02</leafValues></_></weakClassifiers></_>
    <!-- stage 13 -->
    <_>
      <maxWeakCount>16</maxWeakCount>
      <stageThreshold>-8.3832323551177979e-01</stageThreshold>
      <weakClassifiers>
        <_>
          <internalNodes>
            0 -1 12 -1.4015665650367737e-01</internalNodes>
          <leafValues>
            3.1386861205101013e-01 -3.3174225687980652e-01</leafValues></_>
        <_>
          <internalNodes>
            0 -1 643 -6.3423803076148033e-03</internalNodes>
          <leafValues>
            9.7415916621685028e-02 -7.3033332824707031e-01</leafValues></_>
        <_>
          <internalNodes>
            0 -1 571 8.6198438657447696e-04</internalNodes>
          <leafValues>
            -1.1126288771629333e-01 5.3589081764221191e-01</leafValues></_>
        <_>
          <internalNodes>
            0 -1 318 -1.6647469019517303e-03</internalNodes>
          <leafValues>
            5.1808938384056091e-02 -7.5360131263732910e-01</leafValues></_>
        <_>
          <internalNodes>
            0 -1 153 -9.6808582544326782e-02</internalNodes>
          <leafValues>
            -4.2532640695571899e-01 1.9127553701400757e-01</leafValues></_>
        <_>
          <internalNodes>
            0 -1 7 -7.8441411256790161e-02</internalNodes>
          <leafValues>
            4.7155997157096863e-01 -1.7093645036220551e-01</leafValues></_>
        <_>
          <internalNodes>
            0 -1 130 8.0922711640596390e-03</internalNodes>
          <leafValues>
            -3.6313322186470032e-01 2.2300723195075989e-01</leafValues></_>
        <_>
          <internalNodes>
            0 -1 285 -3.3393641933798790e-03</internalNodes>
          <leafValues>
            2.7254050970077515e-01 -2.3927056789398193e-01</leafValues></_>
        <_>
          <internalNodes>
            0 -1 13 -3.2545614987611771e-02</internalNodes>
          <leafValues>
            6.5848338603973389e-01 -9.8881453275680542e-02</leafValues></_>
        <_>
          <internalNodes>
            0 -1 400 2.0967370364814997e-03</internalNodes>
          <leafValues>
            -2.2124256193637848e-01 4.4176930189132690e-01</leafValues></_>
        <_>
          <internalNodes>
            0 -1 198 -2.2574977483600378e-03</internalNodes>
          <leafValues>
            3.2548314332962036e-01 -1.8037252128124237e-01</leafValues></_>
        <_>
          <internalNodes>
            0 -1 363 -8.7213832885026932e-03</internalNodes>
          <leafValues>
            4.2968922853469849e-01 -1.3402023911476135e-01</leafValues></_>
        <_>
          <internalNodes>
            0 -1 480 -5.3327309433370829e-04</internalNodes>
          <leafValues>
            2.1456432342529297e-01 -3.1930774450302124e-01</leafValues></_>
        <_>
          <internalNodes>
            0 -1 266 -6.9838995113968849e-03</internalNodes>
          <leafValues>
            1.1802152544260025e-01 -7.1754390001296997e-01</leafValues></_>
        <_>
          <internalNodes>
            0 -1 286 1.9963830709457397e-02</internalNodes>
          <leafValues>
            4.9921765923500061e-02 -8.1393122673034668e-01</leafValues></_>
        <_>
          <internalNodes>
            0 -1 120 3.1663596630096436e-02</internalNodes>
          <leafValues>
            6.2402058392763138e-02 -8.9461398124694824e-01</leafValues></_></weakClassifiers></_>
    <!-- stage 14 -->
    <_>
      <maxWeakCount>17</maxWeakCount>
      <stageThreshold>-9.2118227481842041e-01</stageThreshold>
      <weakClassifiers>
        <_>
          <internalNodes>
            0 -1 147 -6.6145086288452148e-01</internalNodes>
          <leafValues>
            -7.7099233865737915e-01 1.3018597662448883e-01</leafValues></_>
        <_>
          <internalNodes>
            0 -1 106 1.3660136610269547e-03</internalNodes>
          <leafValues>
            -2.1463347971439362e-01 3.6876687407493591e-01</leafValues></_>
        <_>
          <internalNodes>
            0 -1 249 -1.6917170432861894e-04</internalNodes>
          <leafValues>
            4.2406526207923889e-01 -1.5118686854839325e-01</leafValues></_>
        <_>
          <internalNodes>
            0 -1 365 1.1623830068856478e-03</internalNodes>
          <leafValues>
            -1.7550490796566010e-01 3.9113035798072815e-01</leafValues></_>
        <_>
          <internalNodes>
            0 -1 661 -2.8238976374268532e-03</internalNodes>
          <leafValues>
            4.1088891029357910e-01 -1.6223031282424927e-01</leafValues></_>
        <_>
          <internalNodes>
            0 -1 115 -8.1470310688018799e-03</internalNodes>
          <leafValues>
            4.2203712463378906e-01 -1.4767383038997650e-01</leafValues></_>
        <_>
          <internalNodes>
            0 -1 662 1.7667789943516254e-03</internalNodes>
          <leafValues>
            -1.3737510144710541e-01 5.1523381471633911e-01</leafValues></_>
        <_>
          <internalNodes>
            0 -1 280 -7.7703371644020081e-02</internalNodes>
          <leafValues>
            -8.7707084417343140e-01 4.5613180845975876e-02</leafValues></_>
        <_>
          <internalNodes>
            0 -1 272 1.4669494703412056e-04</internalNodes>
          <leafValues>
            -1.5686888992786407e-01 3.3074790239334106e-01</leafValues></_>
        <_>
          <internalNodes>
            0 -1 384 1.2719609367195517e-04</internalNodes>
          <leafValues>
            -2.1032446622848511e-01 2.8160616755485535e-01</leafValues></_>
        <_>
          <internalNodes>
            0 -1 553 -6.9229695945978165e-03</internalNodes>
          <leafValues>
            -1.2729893624782562e-01 4.0635332465171814e-01</leafValues></_>
        <_>
          <internalNodes>
            0 -1 435 1.9537771586328745e-03</internalNodes>
          <leafValues>
            5.5017974227666855e-02 -9.1140866279602051e-01</leafValues></_>
        <_>
          <internalNodes>
            0 -1 647 -6.3930620672181249e-04</internalNodes>
          <leafValues>
            -5.1175987720489502e-01 9.2974349856376648e-02</leafValues></_>
        <_>
          <internalNodes>
            0 -1 620 2.1640681661665440e-03</internalNodes>
          <leafValues>
            -1.5899462997913361e-01 3.7301072478294373e-01</leafValues></_>
        <_>
          <internalNodes>
            0 -1 626 -4.4468854321166873e-04</internalNodes>
          <leafValues>
            4.1445323824882507e-01 -1.5887011587619781e-01</leafValues></_>
        <_>
          <internalNodes>
            0 -1 149 1.4565270394086838e-03</internalNodes>
          <leafValues>
            -1.5246537327766418e-01 3.4519046545028687e-01</leafValues></_>
        <_>
          <internalNodes>
            0 -1 458 -1.2515546404756606e-04</internalNodes>
          <leafValues>
            2.8925138711929321e-01 -1.8089428544044495e-01</leafValues></_></weakClassifiers></_>
    <!-- stage 15 -->
    <_>
      <maxWeakCount>6</maxWeakCount>
      <stageThreshold>-5.8452659845352173e-01</stageThreshold>
      <weakClassifiers>
        <_>
          <internalNodes>
            0 -1 8 4.4748365879058838e-01</internalNodes>
          <leafValues>
            2.8524589538574219e-01 -8.3636361360549927e-01</leafValues></_>
        <_>
          <internalNodes>
            0 -1 383 -1.7264714837074280e-01</internalNodes>
          <leafValues>
            3.2214599847793579e-01 -5.4380267858505249e-01</leafValues></_>
        <_>
          <internalNodes>
            0 -1 443 2.9874092433601618e-05</internalNodes>
          <leafValues>
            -2.5666713714599609e-01 5.6317275762557983e-01</leafValues></_>
        <_>
          <internalNodes>
            0 -1 513 -6.3223429606296122e-05</internalNodes>
          <leafValues>
            6.0207331180572510e-01 -2.5907927751541138e-01</leafValues></_>
        <_>
          <internalNodes>
            0 -1 513 2.9201084544183686e-05</internalNodes>
          <leafValues>
            -4.2892178893089294e-01 4.5182895660400391e-01</leafValues></_>
        <_>
          <internalNodes>
            0 -1 547 7.6194890425540507e-05</internalNodes>
          <leafValues>
            -2.0114149153232574e-01 6.4037156105041504e-01</leafValues></_></weakClassifiers></_>
    <!-- stage 16 -->
    <_>
      <maxWeakCount>12</maxWeakCount>
      <stageThreshold>-1.0152065753936768e+00</stageThreshold>
      <weakClassifiers>
        <_>
          <internalNodes>
            0 -1 322 -1.4888724684715271e-01</internalNodes>
          <leafValues>
            -3.8211381435394287e-01 2.8416484594345093e-01</leafValues></_>
        <_>
          <internalNodes>
            0 -1 448 5.1087298197671771e-04</internalNodes>
          <leafValues>
            -1.7519339919090271e-01 6.6231030225753784e-01</leafValues></_>
        <_>
          <internalNodes>
            0 -1 449 4.1706554475240409e-04</internalNodes>
          <leafValues>
            -1.9158975780010223e-01 6.0186356306076050e-01</leafValues></_>
        <_>
          <internalNodes>
            0 -1 449 -4.3784145964309573e-04</internalNodes>
          <leafValues>
            5.4563271999359131e-01 -1.3782146573066711e-01</leafValues></_>
        <_>
          <internalNodes>
            0 -1 233 9.6769421361386776e-05</internalNodes>
          <leafValues>
            -2.0060297846794128e-01 4.6115738153457642e-01</leafValues></_>
        <_>
          <internalNodes>
            0 -1 163 -9.7083029686473310e-05</internalNodes>
          <leafValues>
            3.8788554072380066e-01 -2.4620078504085541e-01</leafValues></_>
        <_>
          <internalNodes>
            0 -1 340 -2.7911996841430664e-01</internalNodes>
          <leafValues>
            -2.1080383658409119e-01 4.2616271972656250e-01</leafValues></_>
        <_>
          <internalNodes>
            0 -1 371 -5.4141572036314756e-05</internalNodes>
          <leafValues>
            4.2876973748207092e-01 -2.3709861934185028e-01</leafValues></_>
        <_>
          <internalNodes>
            0 -1 496 -3.1350442441180348e-04</internalNodes>
          <leafValues>
            5.4279321432113647e-01 -2.0822978019714355e-01</leafValues></_>
        <_>
          <internalNodes>
            0 -1 496 6.5755541436374187e-04</internalNodes>
          <leafValues>
            -1.5063396096229553e-01 6.7401546239852905e-01</leafValues></_>
        <_>
          <internalNodes>
            0 -1 29 -4.9645220860838890e-03</internalNodes>
          <leafValues>
            7.8542852401733398e-01 -5.1961384713649750e-02</leafValues></_>
        <_>
          <internalNodes>
            0 -1 298 -3.2132593332789838e-04</internalNodes>
          <leafValues>
            5.3747326135635376e-01 -1.7227941751480103e-01</leafValues></_></weakClassifiers></_>
    <!-- stage 17 -->
    <_>
      <maxWeakCount>14</maxWeakCount>
      <stageThreshold>-6.9190973043441772e-01</stageThreshold>
      <weakClassifiers>
        <_>
          <internalNodes>
            0 -1 355 -3.2283239997923374e-03</internalNodes>
          <leafValues>
            -2.2065727412700653e-01 6.8586385250091553e-01</leafValues></_>
        <_>
          <internalNodes>
            0 -1 426 -9.3325205147266388e-02</internalNodes>
          <leafValues>
            -8.6407876014709473e-01 1.2524312734603882e-01</leafValues></_>
        <_>
          <internalNodes>
            0 -1 535 -1.1747802793979645e-01</internalNodes>
          <leafValues>
            -3.5001575946807861e-01 2.4004587531089783e-01</leafValues></_>
        <_>
          <internalNodes>
            0 -1 468 7.1709807962179184e-03</internalNodes>
          <leafValues>
            -2.4219970405101776e-01 3.3401316404342651e-01</leafValues></_>
        <_>
          <internalNodes>
            0 -1 326 -5.3055636584758759e-02</internalNodes>
          <leafValues>
            -7.1471488475799561e-01 8.7740890681743622e-02</leafValues></_>
        <_>
          <internalNodes>
            0 -1 302 -6.6403355449438095e-03</internalNodes>
          <leafValues>
            -8.8065636157989502e-01 9.2226214706897736e-02</leafValues></_>
        <_>
          <internalNodes>
            0 -1 320 4.4055944308638573e-03</internalNodes>
          <leafValues>
            9.3188084661960602e-02 -8.6993944644927979e-01</leafValues></_>
        <_>
          <internalNodes>
            0 -1 136 -5.8386600017547607e-01</internalNodes>
          <leafValues>
            -1.2379290908575058e-01 8.6547583341598511e-01</leafValues></_>
        <_>
          <internalNodes>
            0 -1 555 -6.4686883706599474e-04</internalNodes>
          <leafValues>
            6.2654465436935425e-01 -1.2025664746761322e-01</leafValues></_>
        <_>
          <internalNodes>
            0 -1 323 9.1480072587728500e-03</internalNodes>
          <leafValues>
            1.4349305629730225e-01 -6.6912245750427246e-01</leafValues></_>
        <_>
          <internalNodes>
            0 -1 195 3.8677133852615952e-04</internalNodes>
          <leafValues>
            -2.0172983407974243e-01 4.7302603721618652e-01</leafValues></_>
        <_>
          <internalNodes>
            0 -1 612 2.4962010793387890e-03</internalNodes>
          <leafValues>
            -9.9740020930767059e-02 7.0207411050796509e-01</leafValues></_>
        <_>
          <internalNodes>
            0 -1 577 -6.4761713147163391e-03</internalNodes>
          <leafValues>
            3.6763206124305725e-01 -1.9732081890106201e-01</leafValues></_>
        <_>
          <internalNodes>
            0 -1 121 -1.1627863161265850e-02</internalNodes>
          <leafValues>
            4.2432910203933716e-01 -1.7722679674625397e-01</leafValues></_></weakClassifiers></_>
    <!-- stage 18 -->
    <_>
      <maxWeakCount>20</maxWeakCount>
      <stageThreshold>-9.4466125965118408e-01</stageThreshold>
      <weakClassifiers>
        <_>
          <internalNodes>
            0 -1 183 -1.4824038743972778e-01</internalNodes>
          <leafValues>
            -1.7981073260307312e-01 5.3061223030090332e-01</leafValues></_>
        <_>
          <internalNodes>
            0 -1 225 1.9716392271220684e-03</internalNodes>
          <leafValues>
            -1.3002046942710876e-01 5.2712512016296387e-01</leafValues></_>
        <_>
          <internalNodes>
            0 -1 229 2.3295883147511631e-04</internalNodes>
          <leafValues>
            -1.8533267080783844e-01 4.2975306510925293e-01</leafValues></_>
        <_>
          <internalNodes>
            0 -1 546 -4.9597385805100203e-04</internalNodes>
          <leafValues>
            4.3886286020278931e-01 -1.5754285454750061e-01</leafValues></_>
        <_>
          <internalNodes>
            0 -1 472 1.4067236334085464e-03</internalNodes>
          <leafValues>
            1.2274470180273056e-01 -7.3011875152587891e-01</leafValues></_>
        <_>
          <internalNodes>
            0 -1 615 1.3475739397108555e-03</internalNodes>
          <leafValues>
            1.3616865873336792e-01 -4.5450073480606079e-01</leafValues></_>
        <_>
          <internalNodes>
            0 -1 112 1.8937326967716217e-03</internalNodes>
          <leafValues>
            -1.2291052192449570e-01 5.0384950637817383e-01</leafValues></_>
        <_>
          <internalNodes>
            0 -1 416 3.4730925108306110e-04</internalNodes>
          <leafValues>
            -1.5242677927017212e-01 3.8968414068222046e-01</leafValues></_>
        <_>
          <internalNodes>
            0 -1 576 1.1277397163212299e-02</internalNodes>
          <leafValues>
            -7.5184568762779236e-02 6.6149121522903442e-01</leafValues></_>
        <_>
          <internalNodes>
            0 -1 119 4.5036445953883231e-04</internalNodes>
          <leafValues>
            -1.3734620809555054e-01 4.5539325475692749e-01</leafValues></_>
        <_>
          <internalNodes>
            0 -1 237 -4.3955342844128609e-03</internalNodes>
          <leafValues>
            -5.7597231119871140e-02 8.9018452167510986e-01</leafValues></_>
        <_>
          <internalNodes>
            0 -1 380 -1.3378966832533479e-04</internalNodes>
          <leafValues>
            3.4571966528892517e-01 -1.8386237323284149e-01</leafValues></_>
        <_>
          <internalNodes>
            0 -1 179 2.6090285973623395e-04</internalNodes>
          <leafValues>
            -1.7182907462120056e-01 3.5296583175659180e-01</leafValues></_>
        <_>
          <internalNodes>
            0 -1 143 4.7021685168147087e-04</internalNodes>
          <leafValues>
            -1.3130979239940643e-01 4.4945889711380005e-01</leafValues></_>
        <_>
          <internalNodes>
            0 -1 181 -2.2301276028156281e-01</internalNodes>
          <leafValues>
            -1.6403198242187500e-01 4.4334435462951660e-01</leafValues></_>
        <_>
          <internalNodes>
            0 -1 671 1.7210670193890110e-05</internalNodes>
          <leafValues>
            -2.1419687569141388e-01 3.1874006986618042e-01</leafValues></_>
        <_>
          <internalNodes>
            0 -1 3 9.7389216534793377e-04</internalNodes>
          <leafValues>
            1.4570565521717072e-01 -3.9856100082397461e-01</leafValues></_>
        <_>
          <internalNodes>
            0 -1 511 -2.8311417554505169e-04</internalNodes>
          <leafValues>
            4.3972390890121460e-01 -1.3971363008022308e-01</leafValues></_>
        <_>
          <internalNodes>
            0 -1 325 -1.2262322008609772e-02</internalNodes>
          <leafValues>
            -5.5753684043884277e-01 1.1832465976476669e-01</leafValues></_>
        <_>
          <internalNodes>
            0 -1 438 -3.3758120844140649e-04</internalNodes>
          <leafValues>
            3.9024198055267334e-01 -1.7594157159328461e-01</leafValues></_></weakClassifiers></_>
    <!-- stage 19 -->
    <_>
      <maxWeakCount>21</maxWeakCount>
      <stageThreshold>-1.0076049566268921e+00</stageThreshold>
      <weakClassifiers>
        <_>
          <internalNodes>
            0 -1 169 7.7141180634498596e-02</internalNodes>
          <leafValues>
            -1.0723860561847687e-01 8.3333331346511841e-01</leafValues></_>
        <_>
          <internalNodes>
            0 -1 474 -3.4006062196567655e-04</internalNodes>
          <leafValues>
            3.9269864559173584e-01 -2.3477153480052948e-01</leafValues></_>
        <_>
          <internalNodes>
            0 -1 60 2.7905352413654327e-02</internalNodes>
          <leafValues>
            -9.9978290498256683e-02 4.9747431278228760e-01</leafValues></_>
        <_>
          <internalNodes>
            0 -1 79 1.6567317768931389e-02</internalNodes>
          <leafValues>
            -1.7355427145957947e-01 5.2543014287948608e-01</leafValues></_>
        <_>
          <internalNodes>
            0 -1 240 3.9349213242530823e-02</internalNodes>
          <leafValues>
            9.2351399362087250e-02 -8.6286509037017822e-01</leafValues></_>
        <_>
          <internalNodes>
            0 -1 76 5.9943526983261108e-02</internalNodes>
          <leafValues>
            1.5180408954620361e-01 -5.9997266530990601e-01</leafValues></_>
        <_>
          <internalNodes>
            0 -1 242 -5.2532320842146873e-03</internalNodes>
          <leafValues>
            5.8340293169021606e-01 -1.2772585451602936e-01</leafValues></_>
        <_>
          <internalNodes>
            0 -1 392 1.1974941298831254e-04</internalNodes>
          <leafValues>
            -1.5381732583045959e-01 3.5206946730613708e-01</leafValues></_>
        <_>
          <internalNodes>
            0 -1 497 4.5089185005053878e-04</internalNodes>
          <leafValues>
            -1.6905102133750916e-01 4.0471556782722473e-01</leafValues></_>
        <_>
          <internalNodes>
            0 -1 74 -2.7284312527626753e-03</internalNodes>
          <leafValues>
            -4.2999166250228882e-01 1.4718034863471985e-01</leafValues></_>
        <_>
          <internalNodes>
            0 -1 93 -1.4855388144496828e-04</internalNodes>
          <leafValues>
            2.7949053049087524e-01 -2.2019137442111969e-01</leafValues></_>
        <_>
          <internalNodes>
            0 -1 123 3.0576211865991354e-03</internalNodes>
          <leafValues>
            -1.2197929620742798e-01 5.8087009191513062e-01</leafValues></_>
        <_>
          <internalNodes>
            0 -1 353 3.9517562836408615e-03</internalNodes>
          <leafValues>
            -1.7711713910102844e-01 3.2532423734664917e-01</leafValues></_>
        <_>
          <internalNodes>
            0 -1 420 -2.6072803884744644e-03</internalNodes>
          <leafValues>
            4.6541395783424377e-01 -1.3806763291358948e-01</leafValues></_>
        <_>
          <internalNodes>
            0 -1 391 4.8535740934312344e-03</internalNodes>
          <leafValues>
            -1.3969677686691284e-01 4.4493514299392700e-01</leafValues></_>
        <_>
          <internalNodes>
            0 -1 216 2.4207280948758125e-03</internalNodes>
          <leafValues>
            -1.6965886950492859e-01 3.4036010503768921e-01</leafValues></_>
        <_>
          <internalNodes>
            0 -1 670 2.3470446467399597e-03</internalNodes>
          <leafValues>
            -1.4359000325202942e-01 4.2313921451568604e-01</leafValues></_>
        <_>
          <internalNodes>
            0 -1 667 8.8153989054262638e-04</internalNodes>
          <leafValues>
            -1.8920600414276123e-01 3.2840958237648010e-01</leafValues></_>
        <_>
          <internalNodes>
            0 -1 404 -1.1988349433522671e-04</internalNodes>
          <leafValues>
            3.2816508412361145e-01 -1.9650794565677643e-01</leafValues></_>
        <_>
          <internalNodes>
            0 -1 357 -1.2821489945054054e-02</internalNodes>
          <leafValues>
            -6.7422926425933838e-01 8.4897205233573914e-02</leafValues></_>
        <_>
          <internalNodes>
            0 -1 534 -7.0271333679556847e-03</internalNodes>
          <leafValues>
            -8.0605441331863403e-01 5.5910110473632813e-02</leafValues></_></weakClassifiers></_>
    <!-- stage 20 -->
    <_>
      <maxWeakCount>20</maxWeakCount>
      <stageThreshold>-7.2137439250946045e-01</stageThreshold>
      <weakClassifiers>
        <_>
          <internalNodes>
            0 -1 341 3.3658863685559481e-05</internalNodes>
          <leafValues>
            -2.1632653474807739e-01 2.8235295414924622e-01</leafValues></_>
        <_>
          <internalNodes>
            0 -1 110 -6.6471874713897705e-02</internalNodes>
          <leafValues>
            -9.1534011065959930e-02 6.4896529912948608e-01</leafValues></_>
        <_>
          <internalNodes>
            0 -1 17 7.3174536228179932e-02</internalNodes>
          <leafValues>
            -1.0847786068916321e-01 5.3895670175552368e-01</leafValues></_>
        <_>
          <internalNodes>
            0 -1 72 -7.4726580642163754e-03</internalNodes>
          <leafValues>
            3.0424931645393372e-01 -2.0268526673316956e-01</leafValues></_>
        <_>
          <internalNodes>
            0 -1 303 7.2363391518592834e-02</internalNodes>
          <leafValues>
            7.4754685163497925e-02 -9.7070223093032837e-01</leafValues></_>
        <_>
          <internalNodes>
            0 -1 593 2.4018436670303345e-03</internalNodes>
          <leafValues>
            1.5441022813320160e-01 -3.7260496616363525e-01</leafValues></_>
        <_>
          <internalNodes>
            0 -1 388 -9.6421036869287491e-04</internalNodes>
          <leafValues>
            5.7342272996902466e-01 -8.5877306759357452e-02</leafValues></_>
        <_>
          <internalNodes>
            0 -1 321 -7.6610879041254520e-03</internalNodes>
          <leafValues>
            -6.7302870750427246e-01 8.1193029880523682e-02</leafValues></_>
        <_>
          <internalNodes>
            0 -1 78 -7.5014364719390869e-01</internalNodes>
          <leafValues>
            -3.9599478244781494e-01 1.4293363690376282e-01</leafValues></_>
        <_>
          <internalNodes>
            0 -1 622 -2.6513554621487856e-04</internalNodes>
          <leafValues>
            3.5985451936721802e-01 -1.6124008595943451e-01</leafValues></_>
        <_>
          <internalNodes>
            0 -1 622 6.4983533229678869e-04</internalNodes>
          <leafValues>
            -1.6321127116680145e-01 4.4625744223594666e-01</leafValues></_>
        <_>
          <internalNodes>
            0 -1 532 -1.3790561351925135e-03</internalNodes>
          <leafValues>
            3.7357115745544434e-01 -1.4431755244731903e-01</leafValues></_>
        <_>
          <internalNodes>
            0 -1 127 -3.9016999304294586e-02</internalNodes>
          <leafValues>
            9.2567563056945801e-01 -3.7203479558229446e-02</leafValues></_>
        <_>
          <internalNodes>
            0 -1 199 3.9911901694722474e-05</internalNodes>
          <leafValues>
            -2.1331088244915009e-01 2.3610541224479675e-01</leafValues></_>
        <_>
          <internalNodes>
            0 -1 500 1.7116763046942651e-04</internalNodes>
          <leafValues>
            -1.6998757421970367e-01 3.1629735231399536e-01</leafValues></_>
        <_>
          <internalNodes>
            0 -1 158 7.9785473644733429e-03</internalNodes>
          <leafValues>
            7.7780887484550476e-02 -7.3877412080764771e-01</leafValues></_>
        <_>
          <internalNodes>
            0 -1 490 1.6524905731785111e-05</internalNodes>
          <leafValues>
            -2.1652014553546906e-01 2.6083484292030334e-01</leafValues></_>
        <_>
          <internalNodes>
            0 -1 412 6.0244924388825893e-03</internalNodes>
          <leafValues>
            6.7086324095726013e-02 -9.0791118144989014e-01</leafValues></_>
        <_>
          <internalNodes>
            0 -1 399 -3.0470947967842221e-04</internalNodes>
          <leafValues>
            3.4100756049156189e-01 -1.6349574923515320e-01</leafValues></_>
        <_>
          <internalNodes>
            0 -1 467 7.4069516267627478e-04</internalNodes>
          <leafValues>
            -1.0300660133361816e-01 5.0550949573516846e-01</leafValues></_></weakClassifiers></_>
    <!-- stage 21 -->
    <_>
      <maxWeakCount>26</maxWeakCount>
      <stageThreshold>-7.9601210355758667e-01</stageThreshold>
      <weakClassifiers>
        <_>
          <internalNodes>
            0 -1 401 -7.7753424644470215e-02</internalNodes>
          <leafValues>
            1.8201284110546112e-01 -2.9745042324066162e-01</leafValues></_>
        <_>
          <internalNodes>
            0 -1 494 -2.6814853772521019e-03</internalNodes>
          <leafValues>
            -4.7577041387557983e-01 1.0307072103023529e-01</leafValues></_>
        <_>
          <internalNodes>
            0 -1 234 -1.9553459715098143e-03</internalNodes>
          <leafValues>
            -3.9937514066696167e-01 1.3836163282394409e-01</leafValues></_>
        <_>
          <internalNodes>
            0 -1 28 -3.3584954217076302e-03</internalNodes>
          <leafValues>
            -4.5056959986686707e-01 1.2276892364025116e-01</leafValues></_>
        <_>
          <internalNodes>
            0 -1 83 -5.2983112633228302e-02</internalNodes>
          <leafValues>
            5.9308463335037231e-01 -1.0515286028385162e-01</leafValues></_>
        <_>
          <internalNodes>
            0 -1 282 6.0806903056800365e-03</internalNodes>
          <leafValues>
            -1.4101669192314148e-01 4.0415954589843750e-01</leafValues></_>
        <_>
          <internalNodes>
            0 -1 590 -3.1124847009778023e-03</internalNodes>
          <leafValues>
            -5.4807078838348389e-01 6.4907670021057129e-02</leafValues></_>
        <_>
          <internalNodes>
            0 -1 434 5.7905979454517365e-02</internalNodes>
          <leafValues>
            -8.8083438575267792e-02 4.7776538133621216e-01</leafValues></_>
        <_>
          <internalNodes>
            0 -1 39 6.6739441826939583e-03</internalNodes>
          <leafValues>
            1.1273253709077835e-01 -4.0329694747924805e-01</leafValues></_>
        <_>
          <internalNodes>
            0 -1 639 2.3540151305496693e-03</internalNodes>
          <leafValues>
            -1.9487763941287994e-01 2.3085574805736542e-01</leafValues></_>
        <_>
          <internalNodes>
            0 -1 344 6.0958443209528923e-03</internalNodes>
          <leafValues>
            9.8339699208736420e-02 -4.4995853304862976e-01</leafValues></_>
        <_>
          <internalNodes>
            0 -1 605 6.7696365294978023e-04</internalNodes>
          <leafValues>
            8.8124170899391174e-02 -4.9878764152526855e-01</leafValues></_>
        <_>
          <internalNodes>
            0 -1 377 1.9171170890331268e-02</internalNodes>
          <leafValues>
            -1.1998988687992096e-01 3.7021711468696594e-01</leafValues></_>
        <_>
          <internalNodes>
            0 -1 381 -1.3265534071251750e-03</internalNodes>
          <leafValues>
            2.7502647042274475e-01 -1.8113686144351959e-01</leafValues></_>
        <_>
          <internalNodes>
            0 -1 634 -2.4546172935515642e-03</internalNodes>
          <leafValues>
            3.4657874703407288e-01 -1.2792956829071045e-01</leafValues></_>
        <_>
          <internalNodes>
            0 -1 367 -1.1837009340524673e-02</internalNodes>
          <leafValues>
            -4.3743699789047241e-01 1.0211548954248428e-01</leafValues></_>
        <_>
          <internalNodes>
            0 -1 32 -5.1058672368526459e-02</internalNodes>
          <leafValues>
            2.7741584181785583e-01 -1.7510710656642914e-01</leafValues></_>
        <_>
          <internalNodes>
            0 -1 97 8.7164103984832764e-02</internalNodes>
          <leafValues>
            -1.2440567463636398e-01 4.1121050715446472e-01</leafValues></_>
        <_>
          <internalNodes>
            0 -1 501 -5.9423102065920830e-03</internalNodes>
          <leafValues>
            2.9145386815071106e-01 -1.4477264881134033e-01</leafValues></_>
        <_>
          <internalNodes>
            0 -1 243 6.6908649168908596e-03</internalNodes>
          <leafValues>
            -1.3840904831886292e-01 3.8749182224273682e-01</leafValues></_>
        <_>
          <internalNodes>
            0 -1 463 -6.5634083002805710e-03</internalNodes>
          <leafValues>
            -6.8803232908248901e-01 7.5658477842807770e-02</leafValues></_>
        <_>
          <internalNodes>
            0 -1 111 1.9976333715021610e-03</internalNodes>
          <leafValues>
            7.4407726526260376e-02 -5.3766596317291260e-01</leafValues></_>
        <_>
          <internalNodes>
            0 -1 324 -7.8085465356707573e-03</internalNodes>
          <leafValues>
            4.6606799960136414e-01 -9.0100437402725220e-02</leafValues></_>
        <_>
          <internalNodes>
            0 -1 631 -1.3069759123027325e-02</internalNodes>
          <leafValues>
            5.1339286565780640e-01 -7.9770728945732117e-02</leafValues></_>
        <_>
          <internalNodes>
            0 -1 654 6.0649812221527100e-03</internalNodes>
          <leafValues>
            -1.5840084850788116e-01 3.8182905316352844e-01</leafValues></_>
        <_>
          <internalNodes>
            0 -1 556 2.9681308660656214e-03</internalNodes>
          <leafValues>
            6.7697308957576752e-02 -6.8625223636627197e-01</leafValues></_></weakClassifiers></_>
    <!-- stage 22 -->
    <_>
      <maxWeakCount>21</maxWeakCount>
      <stageThreshold>-7.6373893022537231e-01</stageThreshold>
      <weakClassifiers>
        <_>
          <internalNodes>
            0 -1 528 -3.7654564948752522e-05</internalNodes>
          <leafValues>
            1.8009479343891144e-01 -2.4120603501796722e-01</leafValues></_>
        <_>
          <internalNodes>
            0 -1 167 5.3118892014026642e-02</internalNodes>
          <leafValues>
            -9.6666023135185242e-02 4.9960169196128845e-01</leafValues></_>
        <_>
          <internalNodes>
            0 -1 166 -5.6752391159534454e-02</internalNodes>
          <leafValues>
            2.7213087677955627e-01 -2.2549349069595337e-01</leafValues></_>
        <_>
          <internalNodes>
            0 -1 448 1.2436232645995915e-04</internalNodes>
          <leafValues>
            -1.5742288529872894e-01 2.9286533594131470e-01</leafValues></_>
        <_>
          <internalNodes>
            0 -1 364 1.4698093291372061e-03</internalNodes>
          <leafValues>
            5.7919967919588089e-02 -7.1676367521286011e-01</leafValues></_>
        <_>
          <internalNodes>
            0 -1 261 1.4251645188778639e-04</internalNodes>
          <leafValues>
            -1.7547234892845154e-01 2.8565248847007751e-01</leafValues></_>
        <_>
          <internalNodes>
            0 -1 99 -5.0785010680556297e-03</internalNodes>
          <leafValues>
            2.7922150492668152e-01 -1.8289254605770111e-01</leafValues></_>
        <_>
          <internalNodes>
            0 -1 567 -8.2944787573069334e-04</internalNodes>
          <leafValues>
            3.5388013720512390e-01 -1.1778191477060318e-01</leafValues></_>
        <_>
          <internalNodes>
            0 -1 549 -4.3044095946243033e-05</internalNodes>
          <leafValues>
            2.4071562290191650e-01 -2.6119264960289001e-01</leafValues></_>
        <_>
          <internalNodes>
            0 -1 660 -1.7997720278799534e-03</internalNodes>
          <leafValues>
            3.6260578036308289e-01 -1.5161970257759094e-01</leafValues></_>
        <_>
          <internalNodes>
            0 -1 471 -9.1289222240447998e-02</internalNodes>
          <leafValues>
            -1.6679874062538147e-01 2.9577735066413879e-01</leafValues></_>
        <_>
          <internalNodes>
            0 -1 673 -9.9587859585881233e-04</internalNodes>
          <leafValues>
            5.7946628332138062e-01 -9.9556230008602142e-02</leafValues></_>
        <_>
          <internalNodes>
            0 -1 551 3.2516465580556542e-05</internalNodes>
          <leafValues>
            -1.9001244008541107e-01 2.7951690554618835e-01</leafValues></_>
        <_>
          <internalNodes>
            0 -1 278 -6.9473855546675622e-05</internalNodes>
          <leafValues>
            2.5366351008415222e-01 -2.3686599731445313e-01</leafValues></_>
        <_>
          <internalNodes>
            0 -1 208 1.5052799135446548e-02</internalNodes>
          <leafValues>
            1.2355687469244003e-01 -5.2531749010086060e-01</leafValues></_>
        <_>
          <internalNodes>
            0 -1 295 1.1263221676927060e-04</internalNodes>
          <leafValues>
            -2.0322048664093018e-01 2.8267958760261536e-01</leafValues></_>
        <_>
          <internalNodes>
            0 -1 283 -9.8182039801031351e-04</internalNodes>
          <leafValues>
            3.8254997134208679e-01 -1.1382767558097839e-01</leafValues></_>
        <_>
          <internalNodes>
            0 -1 419 -6.1014758102828637e-05</internalNodes>
          <leafValues>
            2.3758970201015472e-01 -2.0623649656772614e-01</leafValues></_>
        <_>
          <internalNodes>
            0 -1 309 2.2905280638951808e-04</internalNodes>
          <leafValues>
            -1.7356239259243011e-01 2.5610098242759705e-01</leafValues></_>
        <_>
          <internalNodes>
            0 -1 73 -2.6488986331969500e-03</internalNodes>
          <leafValues>
            -5.7611352205276489e-01 9.2053525149822235e-02</leafValues></_>
        <_>
          <internalNodes>
            0 -1 139 -1.3420120812952518e-03</internalNodes>
          <leafValues>
            3.7033110857009888e-01 -1.4054924249649048e-01</leafValues></_></weakClassifiers></_>
    <!-- stage 23 -->
    <_>
      <maxWeakCount>25</maxWeakCount>
      <stageThreshold>-8.0433613061904907e-01</stageThreshold>
      <weakClassifiers>
        <_>
          <internalNodes>
            0 -1 170 -7.7511286735534668e-01</internalNodes>
          <leafValues>
            -3.0687829852104187e-01 2.1719457209110260e-01</leafValues></_>
        <_>
          <internalNodes>
            0 -1 312 -1.0321034491062164e-01</internalNodes>
          <leafValues>
            3.9310309290885925e-01 -1.5080833435058594e-01</leafValues></_>
        <_>
          <internalNodes>
            0 -1 665 -8.2995873526670039e-05</internalNodes>
          <leafValues>
            2.5420570373535156e-01 -1.7020231485366821e-01</leafValues></_>
        <_>
          <internalNodes>
            0 -1 41 -2.9346104711294174e-03</internalNodes>
          <leafValues>
            5.6947916746139526e-01 -9.8270937800407410e-02</leafValues></_>
        <_>
          <internalNodes>
            0 -1 455 -1.0923424735665321e-02</internalNodes>
          <leafValues>
            -6.9189769029617310e-01 5.7098507881164551e-02</leafValues></_>
        <_>
          <internalNodes>
            0 -1 574 -1.8009004998020828e-04</internalNodes>
          <leafValues>
            2.4847196042537689e-01 -2.0675712823867798e-01</leafValues></_>
        <_>
          <internalNodes>
            0 -1 484 6.1860831920057535e-05</internalNodes>
          <leafValues>
            -1.9423986971378326e-01 2.1994562447071075e-01</leafValues></_>
        <_>
          <internalNodes>
            0 -1 67 -3.5138400271534920e-03</internalNodes>
          <leafValues>
            -4.2363435029983521e-01 1.2033998966217041e-01</leafValues></_>
        <_>
          <internalNodes>
            0 -1 558 -9.9627906456589699e-04</internalNodes>
          <leafValues>
            4.9257147312164307e-01 -1.0465782880783081e-01</leafValues></_>
        <_>
          <internalNodes>
            0 -1 515 2.6252275332808495e-02</internalNodes>
          <leafValues>
            6.5172135829925537e-02 -8.9028131961822510e-01</leafValues></_>
        <_>
          <internalNodes>
            0 -1 291 1.7698120325803757e-02</internalNodes>
          <leafValues>
            3.9420399814844131e-02 -7.4180907011032104e-01</leafValues></_>
        <_>
          <internalNodes>
            0 -1 117 5.3630385082215071e-04</internalNodes>
          <leafValues>
            -1.2340380251407623e-01 3.9568811655044556e-01</leafValues></_>
        <_>
          <internalNodes>
            0 -1 154 1.0268217884004116e-02</internalNodes>
          <leafValues>
            -1.4406311511993408e-01 3.0460420250892639e-01</leafValues></_>
        <_>
          <internalNodes>
            0 -1 38 -2.6714494451880455e-02</internalNodes>
          <leafValues>
            -6.7917722463607788e-01 6.5142787992954254e-02</leafValues></_>
        <_>
          <internalNodes>
            0 -1 393 2.4481026921421289e-03</internalNodes>
          <leafValues>
            7.3589153587818146e-02 -5.6222248077392578e-01</leafValues></_>
        <_>
          <internalNodes>
            0 -1 36 1.2843175232410431e-01</internalNodes>
          <leafValues>
            -7.2225987911224365e-02 7.3052549362182617e-01</leafValues></_>
        <_>
          <internalNodes>
            0 -1 70 -7.1372464299201965e-03</internalNodes>
          <leafValues>
            5.0210082530975342e-01 -8.9174211025238037e-02</leafValues></_>
        <_>
          <internalNodes>
            0 -1 235 -2.1022070199251175e-02</internalNodes>
          <leafValues>
            6.8499213457107544e-01 -5.4249145090579987e-02</leafValues></_>
        <_>
          <internalNodes>
            0 -1 217 -1.6105482354760170e-02</internalNodes>
          <leafValues>
            4.0735372900962830e-01 -1.1191229522228241e-01</leafValues></_>
        <_>
          <internalNodes>
            0 -1 624 3.3982895314693451e-02</internalNodes>
          <leafValues>
            -1.1198548227548599e-01 3.9454445242881775e-01</leafValues></_>
        <_>
          <internalNodes>
            0 -1 56 -1.3817115686833858e-03</internalNodes>
          <leafValues>
            1.9299067556858063e-01 -2.3606590926647186e-01</leafValues></_>
        <_>
          <internalNodes>
            0 -1 409 -2.2890077903866768e-02</internalNodes>
          <leafValues>
            -8.0866813659667969e-01 5.2833620458841324e-02</leafValues></_>
        <_>
          <internalNodes>
            0 -1 439 -1.3206149451434612e-03</internalNodes>
          <leafValues>
            2.9940116405487061e-01 -1.7945741117000580e-01</leafValues></_>
        <_>
          <internalNodes>
            0 -1 506 5.3137480281293392e-03</internalNodes>
          <leafValues>
            1.0375973582267761e-01 -4.7840949892997742e-01</leafValues></_>
        <_>
          <internalNodes>
            0 -1 222 1.6303244978189468e-02</internalNodes>
          <leafValues>
            -1.0424561053514481e-01 4.7904410958290100e-01</leafValues></_></weakClassifiers></_>
    <!-- stage 24 -->
    <_>
      <maxWeakCount>25</maxWeakCount>
      <stageThreshold>-7.7549809217453003e-01</stageThreshold>
      <weakClassifiers>
        <_>
          <internalNodes>
            0 -1 0 5.9365824563428760e-04</internalNodes>
          <leafValues>
            9.4936706125736237e-02 -4.2553192377090454e-01</leafValues></_>
        <_>
          <internalNodes>
            0 -1 18 -2.5483649969100952e-01</internalNodes>
          <leafValues>
            4.2363983392715454e-01 -1.0450424998998642e-01</leafValues></_>
        <_>
          <internalNodes>
            0 -1 431 1.5940328594297171e-03</internalNodes>
          <leafValues>
            6.2752500176429749e-02 -7.6593095064163208e-01</leafValues></_>
        <_>
          <internalNodes>
            0 -1 652 -4.0756370872259140e-03</internalNodes>
          <leafValues>
            3.8912123441696167e-01 -9.6413381397724152e-02</leafValues></_>
        <_>
          <internalNodes>
            0 -1 629 -1.2049267534166574e-03</internalNodes>
          <leafValues>
            -5.7122099399566650e-01 6.2347780913114548e-02</leafValues></_>
        <_>
          <internalNodes>
            0 -1 580 -4.1962275281548500e-04</internalNodes>
          <leafValues>
            3.6355680227279663e-01 -1.2535613775253296e-01</leafValues></_>
        <_>
          <internalNodes>
            0 -1 369 -2.8444547206163406e-03</internalNodes>
          <leafValues>
            1.5454667806625366e-01 -2.7150243520736694e-01</leafValues></_>
        <_>
          <internalNodes>
            0 -1 614 -4.7063166275620461e-03</internalNodes>
          <leafValues>
            -7.6503771543502808e-01 8.3673842251300812e-02</leafValues></_>
        <_>
          <internalNodes>
            0 -1 386 -5.0801321864128113e-02</internalNodes>
          <leafValues>
            5.7526189088821411e-01 -9.5142342150211334e-02</leafValues></_>
        <_>
          <internalNodes>
            0 -1 581 -2.1357345394790173e-04</internalNodes>
          <leafValues>
            2.9425060749053955e-01 -1.6968932747840881e-01</leafValues></_>
        <_>
          <internalNodes>
            0 -1 307 -2.0895665884017944e-01</internalNodes>
          <leafValues>
            -1.8684849143028259e-01 2.5986596941947937e-01</leafValues></_>
        <_>
          <internalNodes>
            0 -1 569 1.4097371604293585e-03</internalNodes>
          <leafValues>
            -9.9039807915687561e-02 7.0523244142532349e-01</leafValues></_>
        <_>
          <internalNodes>
            0 -1 588 -2.4212235584855080e-03</internalNodes>
          <leafValues>
            -5.7737481594085693e-01 1.0094776004552841e-01</leafValues></_>
        <_>
          <internalNodes>
            0 -1 610 1.2991728726774454e-03</internalNodes>
          <leafValues>
            -1.7093905806541443e-01 3.3727961778640747e-01</leafValues></_>
        <_>
          <internalNodes>
            0 -1 633 1.3636028394103050e-02</internalNodes>
          <leafValues>
            -1.0571194440126419e-01 4.5888951420783997e-01</leafValues></_>
        <_>
          <internalNodes>
            0 -1 301 3.6080949939787388e-03</internalNodes>
          <leafValues>
            6.3017688691616058e-02 -7.8516638278961182e-01</leafValues></_>
        <_>
          <internalNodes>
            0 -1 142 5.5666198022663593e-03</internalNodes>
          <leafValues>
            -8.8415123522281647e-02 5.8173328638076782e-01</leafValues></_>
        <_>
          <internalNodes>
            0 -1 536 -2.3466181010007858e-02</internalNodes>
          <leafValues>
            -5.2446430921554565e-01 9.4082966446876526e-02</leafValues></_>
        <_>
          <internalNodes>
            0 -1 578 -3.3909138292074203e-03</internalNodes>
          <leafValues>
            3.2605257630348206e-01 -1.5966379642486572e-01</leafValues></_>
        <_>
          <internalNodes>
            0 -1 54 -1.0037720203399658e-01</internalNodes>
          <leafValues>
            4.9333882331848145e-01 -1.1110820621252060e-01</leafValues></_>
        <_>
          <internalNodes>
            0 -1 403 1.0389984527137130e-04</internalNodes>
          <leafValues>
            -1.8717861175537109e-01 2.9763263463973999e-01</leafValues></_>
        <_>
          <internalNodes>
            0 -1 3 -1.2294759508222342e-03</internalNodes>
          <leafValues>
            -3.9626878499984741e-01 1.5319080650806427e-01</leafValues></_>
        <_>
          <internalNodes>
            0 -1 596 5.9093395248055458e-03</internalNodes>
          <leafValues>
            8.9342236518859863e-02 -5.7016581296920776e-01</leafValues></_>
        <_>
          <internalNodes>
            0 -1 24 -1.0146440006792545e-02</internalNodes>
          <leafValues>
            3.5904282331466675e-01 -1.4355328679084778e-01</leafValues></_>
        <_>
          <internalNodes>
            0 -1 579 2.6890952140092850e-03</internalNodes>
          <leafValues>
            -1.7530518770217896e-01 2.9519096016883850e-01</leafValues></_></weakClassifiers></_>
    <!-- stage 25 -->
    <_>
      <maxWeakCount>32</maxWeakCount>
      <stageThreshold>-8.7992519140243530e-01</stageThreshold>
      <weakClassifiers>
        <_>
          <internalNodes>
            0 -1 603 -1.6183355910470709e-05</internalNodes>
          <leafValues>
            1.6157205402851105e-01 -2.5966849923133850e-01</leafValues></_>
        <_>
          <internalNodes>
            0 -1 37 9.8467078059911728e-03</internalNodes>
          <leafValues>
            6.9722197949886322e-02 -5.8713781833648682e-01</leafValues></_>
        <_>
          <internalNodes>
            0 -1 37 9.4431322067975998e-03</internalNodes>
          <leafValues>
            -8.9294416829943657e-03 1.</leafValues></_>
        <_>
          <internalNodes>
            0 -1 37 8.9217070490121841e-03</internalNodes>
          <leafValues>
            5.9347064234316349e-03 -8.6938333511352539e-01</leafValues></_>
        <_>
          <internalNodes>
            0 -1 470 1.2108452618122101e-02</internalNodes>
          <leafValues>
            -7.2587631642818451e-02 5.3544032573699951e-01</leafValues></_>
        <_>
          <internalNodes>
            0 -1 410 2.8967773541808128e-03</internalNodes>
          <leafValues>
            4.1704360395669937e-02 -8.4654647111892700e-01</leafValues></_>
        <_>
          <internalNodes>
            0 -1 5 3.2584504224359989e-03</internalNodes>
          <leafValues>
            1.2875360250473022e-01 -3.1498876214027405e-01</leafValues></_>
        <_>
          <internalNodes>
            0 -1 20 -1.6093119978904724e-02</internalNodes>
          <leafValues>
            4.1350159049034119e-01 -8.6473569273948669e-02</leafValues></_>
        <_>
          <internalNodes>
            0 -1 265 2.2879727184772491e-02</internalNodes>
          <leafValues>
            -1.1796037107706070e-01 3.9549145102500916e-01</leafValues></_>
        <_>
          <internalNodes>
            0 -1 231 3.1721228733658791e-03</internalNodes>
          <leafValues>
            1.0922080278396606e-01 -5.4804551601409912e-01</leafValues></_>
        <_>
          <internalNodes>
            0 -1 131 9.1425016522407532e-02</internalNodes>
          <leafValues>
            -8.6009465157985687e-02 8.4405082464218140e-01</leafValues></_>
        <_>
          <internalNodes>
            0 -1 653 8.3356502000242472e-04</internalNodes>
          <leafValues>
            -1.8376843631267548e-01 2.1144774556159973e-01</leafValues></_>
        <_>
          <internalNodes>
            0 -1 378 1.9798758439719677e-03</internalNodes>
          <leafValues>
            -1.2703888118267059e-01 2.9871571063995361e-01</leafValues></_>
        <_>
          <internalNodes>
            0 -1 447 2.6166064199060202e-03</internalNodes>
          <leafValues>
            -2.0701883733272552e-01 2.1326126158237457e-01</leafValues></_>
        <_>
          <internalNodes>
            0 -1 299 1.3373047113418579e-03</internalNodes>
          <leafValues>
            -1.6515208780765533e-01 2.6906627416610718e-01</leafValues></_>
        <_>
          <internalNodes>
            0 -1 243 -2.2567682899534702e-03</internalNodes>
          <leafValues>
            3.6949542164802551e-01 -1.5044224262237549e-01</leafValues></_>
        <_>
          <internalNodes>
            0 -1 129 -6.6578784026205540e-04</internalNodes>
          <leafValues>
            -2.5853452086448669e-01 1.7279712855815887e-01</leafValues></_>
        <_>
          <internalNodes>
            0 -1 176 1.2773439288139343e-02</internalNodes>
          <leafValues>
            5.5798888206481934e-02 -7.5898051261901855e-01</leafValues></_>
        <_>
          <internalNodes>
            0 -1 485 -1.8653213977813721e-02</internalNodes>
          <leafValues>
            3.9530882239341736e-01 -1.1748903244733810e-01</leafValues></_>
        <_>
          <internalNodes>
            0 -1 177 -1.9538854062557220e-01</internalNodes>
          <leafValues>
            7.1398690342903137e-02 -5.4921066761016846e-01</leafValues></_>
        <_>
          <internalNodes>
            0 -1 604 -7.3378061642870307e-05</internalNodes>
          <leafValues>
            2.4181000888347626e-01 -1.8320849537849426e-01</leafValues></_>
        <_>
          <internalNodes>
            0 -1 421 -2.8064232319593430e-03</internalNodes>
          <leafValues>
            -5.7645324617624283e-02 7.2798472642898560e-01</leafValues></_>
        <_>
          <internalNodes>
            0 -1 608 1.8941785674542189e-03</internalNodes>
          <leafValues>
            -1.4036515355110168e-01 3.1121996045112610e-01</leafValues></_>
        <_>
          <internalNodes>
            0 -1 493 -6.9524932769127190e-05</internalNodes>
          <leafValues>
            2.2130814194679260e-01 -1.9624210894107819e-01</leafValues></_>
        <_>
          <internalNodes>
            0 -1 91 2.1465632598847151e-03</internalNodes>
          <leafValues>
            8.6860097944736481e-02 -5.1002794504165649e-01</leafValues></_>
        <_>
          <internalNodes>
            0 -1 209 5.7914794888347387e-04</internalNodes>
          <leafValues>
            -1.3091339170932770e-01 3.9236029982566833e-01</leafValues></_>
        <_>
          <internalNodes>
            0 -1 159 2.6567936874926090e-03</internalNodes>
          <leafValues>
            1.0541094839572906e-01 -4.4744250178337097e-01</leafValues></_>
        <_>
          <internalNodes>
            0 -1 389 6.8123487289994955e-04</internalNodes>
          <leafValues>
            -1.0915826261043549e-01 4.4576716423034668e-01</leafValues></_>
        <_>
          <internalNodes>
            0 -1 254 2.6340377517044544e-03</internalNodes>
          <leafValues>
            1.0937037318944931e-01 -4.3820354342460632e-01</leafValues></_>
        <_>
          <internalNodes>
            0 -1 255 9.2550441622734070e-03</internalNodes>
          <leafValues>
            -9.1252982616424561e-02 5.6449317932128906e-01</leafValues></_>
        <_>
          <internalNodes>
            0 -1 440 -2.3156222887337208e-03</internalNodes>
          <leafValues>
            2.4641241133213043e-01 -1.9495223462581635e-01</leafValues></_>
        <_>
          <internalNodes>
            0 -1 557 -4.1875829920172691e-03</internalNodes>
          <leafValues>
            2.8499191999435425e-01 -1.6031512618064880e-01</leafValues></_></weakClassifiers></_>
    <!-- stage 26 -->
    <_>
      <maxWeakCount>33</maxWeakCount>
      <stageThreshold>-8.4999275207519531e-01</stageThreshold>
      <weakClassifiers>
        <_>
          <internalNodes>
            0 -1 615 9.4064360018819571e-04</internalNodes>
          <leafValues>
            9.6026487648487091e-02 -3.6111110448837280e-01</leafValues></_>
        <_>
          <internalNodes>
            0 -1 211 3.4130513668060303e-03</internalNodes>
          <leafValues>
            5.0623476505279541e-02 -7.1482133865356445e-01</leafValues></_>
        <_>
          <internalNodes>
            0 -1 329 6.3227221369743347e-02</internalNodes>
          <leafValues>
            -4.6670258045196533e-02 6.5013045072555542e-01</leafValues></_>
        <_>
          <internalNodes>
            0 -1 88 -6.7202851176261902e-02</internalNodes>
          <leafValues>
            1.3169810175895691e-01 -3.5772591829299927e-01</leafValues></_>
        <_>
          <internalNodes>
            0 -1 526 2.7758795768022537e-03</internalNodes>
          <leafValues>
            1.4372420310974121e-01 -6.2959873676300049e-01</leafValues></_>
        <_>
          <internalNodes>
            0 -1 1 -1.3335151597857475e-03</internalNodes>
          <leafValues>
            -4.3704938888549805e-01 6.8079113960266113e-02</leafValues></_>
        <_>
          <internalNodes>
            0 -1 538 -2.4772761389613152e-03</internalNodes>
          <leafValues>
            2.7870824933052063e-01 -1.4548750221729279e-01</leafValues></_>
        <_>
          <internalNodes>
            0 -1 572 9.2592835426330566e-04</internalNodes>
          <leafValues>
            -1.0443544387817383e-01 4.4025155901908875e-01</leafValues></_>
        <_>
          <internalNodes>
            0 -1 55 5.5959746241569519e-03</internalNodes>
          <leafValues>
            6.2828384339809418e-02 -6.4260989427566528e-01</leafValues></_>
        <_>
          <internalNodes>
            0 -1 90 7.3720191721804440e-05</internalNodes>
          <leafValues>
            -1.4747872948646545e-01 2.7199560403823853e-01</leafValues></_>
        <_>
          <internalNodes>
            0 -1 638 6.8917719181627035e-04</internalNodes>
          <leafValues>
            -1.1215391010046005e-01 4.3549162149429321e-01</leafValues></_>
        <_>
          <internalNodes>
            0 -1 640 -1.6812148969620466e-03</internalNodes>
          <leafValues>
            -4.1909563541412354e-01 1.0683283954858780e-01</leafValues></_>
        <_>
          <internalNodes>
            0 -1 30 -2.7594774961471558e-02</internalNodes>
          <leafValues>
            2.5923302769660950e-01 -1.6706873476505280e-01</leafValues></_>
        <_>
          <internalNodes>
            0 -1 642 -3.8061202503740788e-03</internalNodes>
          <leafValues>
            2.3141007125377655e-01 -1.7582820355892181e-01</leafValues></_>
        <_>
          <internalNodes>
            0 -1 659 -4.4795661233365536e-04</internalNodes>
          <leafValues>
            3.5322463512420654e-01 -1.3370124995708466e-01</leafValues></_>
        <_>
          <internalNodes>
            0 -1 630 2.4549509398639202e-03</internalNodes>
          <leafValues>
            8.8773161172866821e-02 -5.4460567235946655e-01</leafValues></_>
        <_>
          <internalNodes>
            0 -1 218 1.2568803504109383e-03</internalNodes>
          <leafValues>
            -1.3907092809677124e-01 3.5067328810691833e-01</leafValues></_>
        <_>
          <internalNodes>
            0 -1 562 5.0501804798841476e-04</internalNodes>
          <leafValues>
            -1.2421354651451111e-01 3.4481680393218994e-01</leafValues></_>
        <_>
          <internalNodes>
            0 -1 114 -2.0016133785247803e-03</internalNodes>
          <leafValues>
            -2.9482641816139221e-01 1.4230662584304810e-01</leafValues></_>
        <_>
          <internalNodes>
            0 -1 479 1.3536637416109443e-03</internalNodes>
          <leafValues>
            7.3922306299209595e-02 -6.6984671354293823e-01</leafValues></_>
        <_>
          <internalNodes>
            0 -1 359 4.8108459450304508e-03</internalNodes>
          <leafValues>
            -1.2261747568845749e-01 4.0737280249595642e-01</leafValues></_>
        <_>
          <internalNodes>
            0 -1 190 -3.4764725714921951e-03</internalNodes>
          <leafValues>
            -4.0861001610755920e-01 1.2225660681724548e-01</leafValues></_>
        <_>
          <internalNodes>
            0 -1 560 4.0424615144729614e-04</internalNodes>
          <leafValues>
            -1.6080066561698914e-01 2.5637465715408325e-01</leafValues></_>
        <_>
          <internalNodes>
            0 -1 563 -5.9313874226063490e-04</internalNodes>
          <leafValues>
            3.7277376651763916e-01 -1.3612717390060425e-01</leafValues></_>
        <_>
          <internalNodes>
            0 -1 585 -6.1938114464282990e-02</internalNodes>
          <leafValues>
            6.9427239894866943e-01 -5.5485479533672333e-02</leafValues></_>
        <_>
          <internalNodes>
            0 -1 273 3.7215804331935942e-04</internalNodes>
          <leafValues>
            -1.5456509590148926e-01 2.7892351150512695e-01</leafValues></_>
        <_>
          <internalNodes>
            0 -1 429 -1.4936875086277723e-03</internalNodes>
          <leafValues>
            -7.1176803112030029e-01 6.4186342060565948e-02</leafValues></_>
        <_>
          <internalNodes>
            0 -1 3 3.8279671571217477e-04</internalNodes>
          <leafValues>
            1.2990778684616089e-01 -3.1396389007568359e-01</leafValues></_>
        <_>
          <internalNodes>
            0 -1 174 7.0463702082633972e-02</internalNodes>
          <leafValues>
            5.5961012840270996e-02 -9.2719727754592896e-01</leafValues></_>
        <_>
          <internalNodes>
            0 -1 482 -2.9887404525652528e-04</internalNodes>
          <leafValues>
