<?xml version="1.0"?>
<opencv_storage>
<stage14>
  <maxWeakCount>17</maxWeakCount>
  <stageThreshold>-9.2118227481842041e-01</stageThreshold>
  <weakClassifiers>
    <_>
      <internalNodes>
        0 -1 30755 -6.6145086288452148e-01</internalNodes>
      <leafValues>
        -7.7099233865737915e-01 1.3018597662448883e-01</leafValues></_>
    <_>
      <internalNodes>
        0 -1 18037 1.3660136610269547e-03</internalNodes>
      <leafValues>
        -2.1463347971439362e-01 3.6876687407493591e-01</leafValues></_>
    <_>
      <internalNodes>
        0 -1 62074 -1.6917170432861894e-04</internalNodes>
      <leafValues>
        4.2406526207923889e-01 -1.5118686854839325e-01</leafValues></_>
    <_>
      <internalNodes>
        0 -1 99961 1.1623830068856478e-03</internalNodes>
      <leafValues>
        -1.7550490796566010e-01 3.9113035798072815e-01</leafValues></_>
    <_>
      <internalNodes>
        0 -1 161849 -2.8238976374268532e-03</internalNodes>
      <leafValues>
        4.1088891029357910e-01 -1.6223031282424927e-01</leafValues></_>
    <_>
      <internalNodes>
        0 -1 20982 -8.1470310688018799e-03</internalNodes>
      <leafValues>
        4.2203712463378906e-01 -1.4767383038997650e-01</leafValues></_>
    <_>
      <internalNodes>
        0 -1 161919 1.7667789943516254e-03</internalNodes>
      <leafValues>
        -1.3737510144710541e-01 5.1523381471633911e-01</leafValues></_>
    <_>
      <internalNodes>
        0 -1 72345 -7.7703371644020081e-02</internalNodes>
      <leafValues>
        -8.7707084417343140e-01 4.5613180845975876e-02</leafValues></_>
    <_>
      <internalNodes>
        0 -1 70555 1.4669494703412056e-04</internalNodes>
      <leafValues>
        -1.5686888992786407e-01 3.3074790239334106e-01</leafValues></_>
    <_>
      <internalNodes>
        0 -1 105885 1.2719609367195517e-04</internalNodes>
      <leafValues>
        -2.1032446622848511e-01 2.8160616755485535e-01</leafValues></_>
    <_>
      <internalNodes>
        0 -1 148183 -6.9229695945978165e-03</internalNodes>
      <leafValues>
        -1.2729893624782562e-01 4.0635332465171814e-01</leafValues></_>
    <_>
      <internalNodes>
        0 -1 116997 1.9537771586328745e-03</internalNodes>
      <leafValues>
        5.5017974227666855e-02 -9.1140866279602051e-01</leafValues></_>
    <_>
      <internalNodes>
        0 -1 161184 -6.3930620672181249e-04</internalNodes>
      <leafValues>
        -5.1175987720489502e-01 9.2974349856376648e-02</leafValues></_>
    <_>
      <internalNodes>
        0 -1 157958 2.1640681661665440e-03</internalNodes>
      <leafValues>
        -1.5899462997913361e-01 3.7301072478294373e-01</leafValues></_>
    <_>
      <internalNodes>
        0 -1 158398 -4.4468854321166873e-04</internalNodes>
      <leafValues>
        4.1445323824882507e-01 -1.5887011587619781e-01</leafValues></_>
    <_>
      <internalNodes>
        0 -1 31884 1.4565270394086838e-03</internalNodes>
      <leafValues>
        -1.5246537327766418e-01 3.4519046545028687e-01</leafValues></_>
    <_>
      <internalNodes>
        0 -1 125052 -1.2515546404756606e-04</internalNodes>
      <leafValues>
        2.8925138711929321e-01 -1.8089428544044495e-01</leafValues></_></weakClassifiers></stage14>
</opencv_storage>
