<?xml version="1.0"?>
<opencv_storage>
<stage15>
  <maxWeakCount>6</maxWeakCount>
  <stageThreshold>-5.8452659845352173e-01</stageThreshold>
  <weakClassifiers>
    <_>
      <internalNodes>
        0 -1 857 4.4748365879058838e-01</internalNodes>
      <leafValues>
        2.8524589538574219e-01 -8.3636361360549927e-01</leafValues></_>
    <_>
      <internalNodes>
        0 -1 105879 -1.7264714837074280e-01</internalNodes>
      <leafValues>
        3.2214599847793579e-01 -5.4380267858505249e-01</leafValues></_>
    <_>
      <internalNodes>
        0 -1 119916 2.9874092433601618e-05</internalNodes>
      <leafValues>
        -2.5666713714599609e-01 5.6317275762557983e-01</leafValues></_>
    <_>
      <internalNodes>
        0 -1 139000 -6.3223429606296122e-05</internalNodes>
      <leafValues>
        6.0207331180572510e-01 -2.5907927751541138e-01</leafValues></_>
    <_>
      <internalNodes>
        0 -1 139000 2.9201084544183686e-05</internalNodes>
      <leafValues>
        -4.2892178893089294e-01 4.5182895660400391e-01</leafValues></_>
    <_>
      <internalNodes>
        0 -1 147228 7.6194890425540507e-05</internalNodes>
      <leafValues>
        -2.0114149153232574e-01 6.4037156105041504e-01</leafValues></_></weakClassifiers></stage15>
</opencv_storage>
