<?xml version="1.0"?>
<opencv_storage>
<stage4>
  <maxWeakCount>14</maxWeakCount>
  <stageThreshold>-8.7716579437255859e-01</stageThreshold>
  <weakClassifiers>
    <_>
      <internalNodes>
        0 -1 120038 -3.0662171542644501e-02</internalNodes>
      <leafValues>
        5.0450450181961060e-01 -2.0065788924694061e-01</leafValues></_>
    <_>
      <internalNodes>
        0 -1 25792 -3.3454503864049911e-03</internalNodes>
      <leafValues>
        4.3800759315490723e-01 -2.1107000112533569e-01</leafValues></_>
    <_>
      <internalNodes>
        0 -1 29961 -6.9752424955368042e-01</internalNodes>
      <leafValues>
        -7.2464764118194580e-01 1.0482256114482880e-01</leafValues></_>
    <_>
      <internalNodes>
        0 -1 145790 2.9525915160775185e-02</internalNodes>
      <leafValues>
        -8.3292238414287567e-02 5.5997544527053833e-01</leafValues></_>
    <_>
      <internalNodes>
        0 -1 53581 3.7605965044349432e-03</internalNodes>
      <leafValues>
        -1.5457561612129211e-01 5.7572150230407715e-01</leafValues></_>
    <_>
      <internalNodes>
        0 -1 120288 -2.3951963521540165e-03</internalNodes>
      <leafValues>
        2.4791531264781952e-01 -3.2243075966835022e-01</leafValues></_>
    <_>
      <internalNodes>
        0 -1 30906 -2.2012840956449509e-02</internalNodes>
      <leafValues>
        -6.8930041790008545e-01 7.6790280640125275e-02</leafValues></_>
    <_>
      <internalNodes>
        0 -1 8183 -5.3056171163916588e-03</internalNodes>
      <leafValues>
        3.9769989252090454e-01 -2.0953305065631866e-01</leafValues></_>
    <_>
      <internalNodes>
        0 -1 63200 3.3871166408061981e-02</internalNodes>
      <leafValues>
        1.1455573886632919e-01 -7.1126377582550049e-01</leafValues></_>
    <_>
      <internalNodes>
        0 -1 157551 2.0229653455317020e-03</internalNodes>
      <leafValues>
        -1.8364550173282623e-01 4.5124012231826782e-01</leafValues></_>
    <_>
      <internalNodes>
        0 -1 54275 -5.9712645597755909e-03</internalNodes>
      <leafValues>
        7.9045337438583374e-01 -9.8287463188171387e-02</leafValues></_>
    <_>
      <internalNodes>
        0 -1 143012 5.8825416490435600e-03</internalNodes>
      <leafValues>
        1.2307318300008774e-01 -7.5771445035934448e-01</leafValues></_>
    <_>
      <internalNodes>
        0 -1 5836 2.9808597901137546e-05</internalNodes>
      <leafValues>
        -2.6549139618873596e-01 2.7034589648246765e-01</leafValues></_>
    <_>
      <internalNodes>
        0 -1 90868 -2.0208206027746201e-02</internalNodes>
      <leafValues>
        3.5308724641799927e-01 -2.1650122106075287e-01</leafValues></_></weakClassifiers></stage4>
</opencv_storage>
