<?xml version="1.0"?>
<opencv_storage>
<stage0>
  <maxWeakCount>5</maxWeakCount>
  <stageThreshold>-4.5511072874069214e-01</stageThreshold>
  <weakClassifiers>
    <_>
      <internalNodes>
        0 -1 57403 -5.6397688388824463e-01</internalNodes>
      <leafValues>
        -1. 2.5960060954093933e-01</leafValues></_>
    <_>
      <internalNodes>
        0 -1 158977 1.2729005888104439e-02</internalNodes>
      <leafValues>
        -3.7364020943641663e-01 6.9553583860397339e-01</leafValues></_>
    <_>
      <internalNodes>
        0 -1 4068 -2.8778707981109619e-01</internalNodes>
      <leafValues>
        3.3539548516273499e-01 -7.2758758068084717e-01</leafValues></_>
    <_>
      <internalNodes>
        0 -1 26096 2.9313458129763603e-02</internalNodes>
      <leafValues>
        -3.4244051575660706e-01 6.5260326862335205e-01</leafValues></_>
    <_>
      <internalNodes>
        0 -1 4210 -2.2978067398071289e-02</internalNodes>
      <leafValues>
        8.0090278387069702e-01 -2.6608690619468689e-01</leafValues></_></weakClassifiers></stage0>
</opencv_storage>
