<?xml version="1.0"?>
<opencv_storage>
<stage16>
  <maxWeakCount>12</maxWeakCount>
  <stageThreshold>-1.0152065753936768e+00</stageThreshold>
  <weakClassifiers>
    <_>
      <internalNodes>
        0 -1 89950 -1.4888724684715271e-01</internalNodes>
      <leafValues>
        -3.8211381435394287e-01 2.8416484594345093e-01</leafValues></_>
    <_>
      <internalNodes>
        0 -1 121045 5.1087298197671771e-04</internalNodes>
      <leafValues>
        -1.7519339919090271e-01 6.6231030225753784e-01</leafValues></_>
    <_>
      <internalNodes>
        0 -1 121298 4.1706554475240409e-04</internalNodes>
      <leafValues>
        -1.9158975780010223e-01 6.0186356306076050e-01</leafValues></_>
    <_>
      <internalNodes>
        0 -1 121298 -4.3784145964309573e-04</internalNodes>
      <leafValues>
        5.4563271999359131e-01 -1.3782146573066711e-01</leafValues></_>
    <_>
      <internalNodes>
        0 -1 59204 9.6769421361386776e-05</internalNodes>
      <leafValues>
        -2.0060297846794128e-01 4.6115738153457642e-01</leafValues></_>
    <_>
      <internalNodes>
        0 -1 37450 -9.7083029686473310e-05</internalNodes>
      <leafValues>
        3.8788554072380066e-01 -2.4620078504085541e-01</leafValues></_>
    <_>
      <internalNodes>
        0 -1 95602 -2.7911996841430664e-01</internalNodes>
      <leafValues>
        -2.1080383658409119e-01 4.2616271972656250e-01</leafValues></_>
    <_>
      <internalNodes>
        0 -1 101140 -5.4141572036314756e-05</internalNodes>
      <leafValues>
        4.2876973748207092e-01 -2.3709861934185028e-01</leafValues></_>
    <_>
      <internalNodes>
        0 -1 133511 -3.1350442441180348e-04</internalNodes>
      <leafValues>
        5.4279321432113647e-01 -2.0822978019714355e-01</leafValues></_>
    <_>
      <internalNodes>
        0 -1 133511 6.5755541436374187e-04</internalNodes>
      <leafValues>
        -1.5063396096229553e-01 6.7401546239852905e-01</leafValues></_>
    <_>
      <internalNodes>
        0 -1 3151 -4.9645220860838890e-03</internalNodes>
      <leafValues>
        7.8542852401733398e-01 -5.1961384713649750e-02</leafValues></_>
    <_>
      <internalNodes>
        0 -1 80691 -3.2132593332789838e-04</internalNodes>
      <leafValues>
        5.3747326135635376e-01 -1.7227941751480103e-01</leafValues></_></weakClassifiers></stage16>
</opencv_storage>
