<?xml version="1.0"?>
<opencv_storage>
<stage20>
  <maxWeakCount>19</maxWeakCount>
  <stageThreshold>-8.0967170000076294e-01</stageThreshold>
  <weakClassifiers>
    <_>
      <internalNodes>
        0 -1 80759 1.3939460739493370e-02</internalNodes>
      <leafValues>
        -1.9097743928432465e-01 4.1621622443199158e-01</leafValues></_>
    <_>
      <internalNodes>
        0 -1 106885 3.6217013839632273e-03</internalNodes>
      <leafValues>
        1.2355173379182816e-01 -4.9378457665443420e-01</leafValues></_>
    <_>
      <internalNodes>
        0 -1 107239 -1.1990467086434364e-02</internalNodes>
      <leafValues>
        3.5127118229866028e-01 -1.5331341326236725e-01</leafValues></_>
    <_>
      <internalNodes>
        0 -1 140295 -3.7559118121862411e-02</internalNodes>
      <leafValues>
        3.0954092741012573e-01 -1.9140683114528656e-01</leafValues></_>
    <_>
      <internalNodes>
        0 -1 128055 4.7555435448884964e-03</internalNodes>
      <leafValues>
        9.4636522233486176e-02 -8.5841900110244751e-01</leafValues></_>
    <_>
      <internalNodes>
        0 -1 38156 -3.0290164053440094e-02</internalNodes>
      <leafValues>
        5.6022781133651733e-01 -7.4128858745098114e-02</leafValues></_>
    <_>
      <internalNodes>
        0 -1 50681 3.9745876565575600e-03</internalNodes>
      <leafValues>
        -1.1518827825784683e-01 4.9131038784980774e-01</leafValues></_>
    <_>
      <internalNodes>
        0 -1 161467 2.9675942641915753e-05</internalNodes>
      <leafValues>
        -2.1669045090675354e-01 2.6692250370979309e-01</leafValues></_>
    <_>
      <internalNodes>
        0 -1 1119 6.0100574046373367e-03</internalNodes>
      <leafValues>
        4.7523181885480881e-02 -7.7700364589691162e-01</leafValues></_>
    <_>
      <internalNodes>
        0 -1 106673 -7.1627571014687419e-04</internalNodes>
      <leafValues>
        5.3798913955688477e-01 -9.4066783785820007e-02</leafValues></_>
    <_>
      <internalNodes>
        0 -1 143411 -4.4829846592620015e-04</internalNodes>
      <leafValues>
        2.4738539755344391e-01 -2.0311123132705688e-01</leafValues></_>
    <_>
      <internalNodes>
        0 -1 1114 -2.5440230965614319e-03</internalNodes>
      <leafValues>
        -5.0972670316696167e-01 9.1846883296966553e-02</leafValues></_>
    <_>
      <internalNodes>
        0 -1 11055 -6.4140288159251213e-03</internalNodes>
      <leafValues>
        4.7942540049552917e-01 -1.1314903944730759e-01</leafValues></_>
    <_>
      <internalNodes>
        0 -1 133840 1.1834334582090378e-03</internalNodes>
      <leafValues>
        -1.3437056541442871e-01 4.2092221975326538e-01</leafValues></_>
    <_>
      <internalNodes>
        0 -1 80323 5.3750420920550823e-04</internalNodes>
      <leafValues>
        -9.7354315221309662e-02 4.6686112880706787e-01</leafValues></_>
    <_>
      <internalNodes>
        0 -1 49491 -6.3767093233764172e-03</internalNodes>
      <leafValues>
        -7.3092871904373169e-01 6.8808481097221375e-02</leafValues></_>
    <_>
      <internalNodes>
        0 -1 39007 -1.3920086203143001e-03</internalNodes>
      <leafValues>
        3.8272500038146973e-01 -1.4139685034751892e-01</leafValues></_>
    <_>
      <internalNodes>
        0 -1 127911 9.7266510128974915e-03</internalNodes>
      <leafValues>
        -1.4033837616443634e-01 3.9206182956695557e-01</leafValues></_>
    <_>
      <internalNodes>
        0 -1 1508 -6.2975853681564331e-02</internalNodes>
      <leafValues>
        5.9148168563842773e-01 -9.0752936899662018e-02</leafValues></_></weakClassifiers></stage20>
</opencv_storage>
