<?xml version="1.0"?>
<opencv_storage>
<stage14>
  <maxWeakCount>20</maxWeakCount>
  <stageThreshold>-8.5055392980575562e-01</stageThreshold>
  <weakClassifiers>
    <_>
      <internalNodes>
        0 -1 46131 -3.2248646020889282e-02</internalNodes>
      <leafValues>
        -6.5876775979995728e-01 1.3928012549877167e-01</leafValues></_>
    <_>
      <internalNodes>
        0 -1 73601 -7.2426760196685791e-01</internalNodes>
      <leafValues>
        -1. 3.6644082516431808e-02</leafValues></_>
    <_>
      <internalNodes>
        0 -1 161677 8.7847243994474411e-03</internalNodes>
      <leafValues>
        -1.4822167158126831e-01 4.9805831909179688e-01</leafValues></_>
    <_>
      <internalNodes>
        0 -1 159424 -1.3541800901293755e-02</internalNodes>
      <leafValues>
        7.4376374483108521e-02 -7.6758748292922974e-01</leafValues></_>
    <_>
      <internalNodes>
        0 -1 98667 5.2269715815782547e-03</internalNodes>
      <leafValues>
        5.0152238458395004e-02 -8.8235467672348022e-01</leafValues></_>
    <_>
      <internalNodes>
        0 -1 90454 -2.6356706395745277e-02</internalNodes>
      <leafValues>
        6.6334515810012817e-01 -9.8839737474918365e-02</leafValues></_>
    <_>
      <internalNodes>
        0 -1 149445 -5.5514061823487282e-03</internalNodes>
      <leafValues>
        3.7065953016281128e-01 -1.6617885231971741e-01</leafValues></_>
    <_>
      <internalNodes>
        0 -1 144926 2.4298090487718582e-02</internalNodes>
      <leafValues>
        -1.2509475648403168e-01 4.3669524788856506e-01</leafValues></_>
    <_>
      <internalNodes>
        0 -1 110120 1.9732696819119155e-04</internalNodes>
      <leafValues>
        -1.5398356318473816e-01 3.3698564767837524e-01</leafValues></_>
    <_>
      <internalNodes>
        0 -1 165 2.8135403990745544e-03</internalNodes>
      <leafValues>
        1.7123930156230927e-01 -2.9863089323043823e-01</leafValues></_>
    <_>
      <internalNodes>
        0 -1 75453 -7.5497529469430447e-03</internalNodes>
      <leafValues>
        -7.1947914361953735e-01 7.4124194681644440e-02</leafValues></_>
    <_>
      <internalNodes>
        0 -1 124089 -9.9433660507202148e-03</internalNodes>
      <leafValues>
        3.6963316798210144e-01 -1.4690198004245758e-01</leafValues></_>
    <_>
      <internalNodes>
        0 -1 156306 5.9844208881258965e-03</internalNodes>
      <leafValues>
        -1.2505277991294861e-01 4.1094616055488586e-01</leafValues></_>
    <_>
      <internalNodes>
        0 -1 45561 5.5446540936827660e-03</internalNodes>
      <leafValues>
        -7.7152289450168610e-02 6.5513974428176880e-01</leafValues></_>
    <_>
      <internalNodes>
        0 -1 148380 3.2691177912056446e-03</internalNodes>
      <leafValues>
        9.4676978886127472e-02 -6.6564011573791504e-01</leafValues></_>
    <_>
      <internalNodes>
        0 -1 93119 2.3656060511711985e-04</internalNodes>
      <leafValues>
        -1.9782952964305878e-01 2.8955295681953430e-01</leafValues></_>
    <_>
      <internalNodes>
        0 -1 117001 -2.2725306451320648e-02</internalNodes>
      <leafValues>
        -7.6424860954284668e-01 5.6373048573732376e-02</leafValues></_>
    <_>
      <internalNodes>
        0 -1 126698 -8.1291468814015388e-04</internalNodes>
      <leafValues>
        3.2953161001205444e-01 -1.6017714142799377e-01</leafValues></_>
    <_>
      <internalNodes>
        0 -1 161508 -1.0647227987647057e-02</internalNodes>
      <leafValues>
        5.6054210662841797e-01 -1.0033390671014786e-01</leafValues></_>
    <_>
      <internalNodes>
        0 -1 132788 -2.8851432725787163e-03</internalNodes>
      <leafValues>
        -7.1271109580993652e-01 9.6665725111961365e-02</leafValues></_></weakClassifiers></stage14>
</opencv_storage>
